scholarship -1.067 1.3767 -0.77094 -1.0167 -0.071468 0.0033116 -0.66407 -0.26534 0.15754 0.49105 0.013165 0.37806 0.5673 -1.0172 0.17826 -0.44176 0.62039 0.53823 -0.12006 0.37731 0.37548 0.24044 -0.6176 -0.53513 0.093037 -1.2318 -0.067944 -1.2703 -1.5141 -0.59568 1.6189 0.39054 -0.28557 -0.84444 0.20972 0.29947 -0.15894 0.81435 0.16326 -0.68696 0.10466 -0.55797 -0.13117 0.93671 -0.85901 -0.642 0.48401 0.68936 -1.1346 -0.010034
bc 0.0435 1.0889 1.2679 -0.12489 -0.90188 -0.95476 0.12481 -0.91026 -0.69619 -0.70177 -1.2005 0.19325 -0.2963 -0.45874 0.6765 -0.13575 -0.74663 -0.21544 -0.5304 1.4377 -0.63762 -0.86681 0.53726 0.2451 0.32201 -1.2418 -1.2294 -1.1981 -0.18799 0.44814 1.5428 -0.41106 -0.14865 0.958 0.35848 -0.09716 -0.14996 -0.32152 -0.27091 0.42924 -0.11342 0.088866 1.5417 0.36951 -0.12529 1.9722 0.24037 -0.021608 -0.32464 -0.71372
excellence -1.2875 1.29 -0.77821 -0.092522 0.31688 -0.3783 0.17617 -0.8887 1.3754 0.42639 0.57573 0.056848 -0.31891 -0.4823 -0.69557 -0.69285 0.5454 1.0148 0.17668 -0.09892 0.26145 0.63706 -0.75103 -0.71376 0.030292 -0.38126 -1.2039 -0.97584 -0.81273 0.05256 1.8451 1.0672 -0.063016 -1.2632 -0.32727 0.24169 -0.0075334 0.65902 -0.28667 -0.48991 0.14243 -0.92327 -0.29002 -0.10673 -0.90871 -0.27603 0.0017407 0.52459 -0.4214 0.49673
scholarships -0.74598 1.3747 -0.039428 -0.71948 -0.35821 0.063477 -0.49821 -0.43863 0.33448 0.63427 -0.15046 0.34261 1.2792 -1.1748 0.23258 -0.35039 0.72977 0.87394 0.49755 0.12343 0.56987 0.48846 0.056358 -0.63899 -0.63515 -0.42933 0.50626 -1.5072 -1.4044 -1.1187 1.6658 1.7943 -0.4219 -0.44587 0.83514 0.86401 -0.12307 0.50091 0.13012 -0.79555 -0.22837 -0.39323 0.38326 1.183 -0.84055 -0.90883 -0.32118 1.0499 -0.98975 -0.28063
leadership -0.060184 0.19573 0.046868 -0.33762 0.68805 -0.092162 0.30626 0.18123 -0.74315 -0.53979 -0.11317 -0.0095475 -1.023 0.18277 -0.93816 -0.011475 0.38777 0.20429 0.71315 -0.016383 -0.47053 0.38794 -0.031707 -0.53901 -0.14585 -1.7535 -0.46678 -0.79394 -0.65551 1.1884 2.8279 0.47764 -1.1559 -1.2001 -0.50197 -0.11748 -0.574 0.073393 -0.5276 -0.45212 -0.63669 -0.37206 -1.1617 0.14378 -0.14107 0.0081431 -0.71861 0.59349 -0.46446 0.13628
1718 0.39214 -0.23566 -0.67579 -1.3288 -0.77381 0.25877 0.82888 -0.20076 -0.49959 -0.55105 -0.20144 0.21707 0.068378 -0.61155 0.03348 0.31108 -0.68428 -0.29281 -0.24941 1.255 0.88745 -0.069868 0.29393 -0.4497 -0.031735 -0.003381 0.92719 -0.487 0.41651 0.99456 -0.16614 -1.2291 -1.5058 0.10494 0.53049 -0.465 1.2073 0.044552 -0.55518 0.62387 0.2725 -0.84767 0.77572 -0.73029 -0.88225 0.92771 -0.054226 -0.61995 -0.11041 -0.055132
12 -0.23571 0.57012 0.77796 0.081692 0.39892 0.54431 -0.6986 -0.22734 -0.62908 -0.60235 -0.26877 -0.90403 -0.27218 -0.16879 0.97937 -0.73379 -0.58563 -0.2769 -1.7075 0.3182 0.37359 -0.05388 1.1989 0.078638 -0.80335 -0.55229 0.72838 -0.74727 0.16176 -0.23681 3.4167 0.29243 -0.25381 0.32002 0.92814 -0.02448 0.57828 0.18899 0.44104 -0.056369 -0.38785 -0.29755 0.83075 -0.65029 -0.46464 0.49458 -0.11181 -0.48842 0.19645 -0.11908
british -0.25236 -0.026505 -0.52338 -0.47625 -0.010816 0.49499 -1.1493 0.22215 0.10172 -1.1891 0.45989 0.34839 -0.15586 0.26532 -0.00068722 0.11876 0.35669 -0.030788 -1.4578 -0.12485 1.1846 0.82477 -0.3904 0.25972 -0.26186 -1.9816 -0.80837 -0.90312 -0.53035 1.4572 2.7247 -0.62139 -0.0461 0.17324 0.36173 -0.18184 -0.081845 -0.59896 -1.0192 -0.75088 0.74903 0.1098 1.0343 -0.67316 0.44687 0.09988 -0.98741 0.058021 -0.13698 -0.39061
columbia -0.63161 0.65359 -0.072946 -0.0012589 -0.99104 0.46266 -1.1537 0.012617 0.79017 -0.55653 0.15148 -0.058037 0.36302 0.2853 -0.46542 0.23626 -0.25087 0.67144 -0.96589 0.26156 0.82031 0.67694 0.0094484 -0.19154 -0.13566 -1.5883 -0.58107 -0.11271 -0.92399 -0.59454 1.7083 -0.62424 -0.09187 -1.0436 0.1381 -0.37161 -0.021757 -0.11455 1.2499 -0.04639 -0.44415 0.004242 0.47169 -0.22921 -1.2857 0.75877 0.19119 -0.17217 -0.83132 0.0022623
ministry 0.15408 -0.17452 -0.1502 0.099785 0.7714 -0.67136 -0.19345 -0.20399 -0.096172 -1.3828 0.87235 -0.073604 0.13992 -0.050779 0.6213 -0.045413 -0.46837 -0.13886 0.47657 0.5876 0.61762 0.073136 -0.089718 -0.63272 0.2298 -1.517 0.48228 -0.28622 -0.93866 0.59626 3.3196 -0.41005 -0.338 -0.20661 -0.47862 0.48714 0.73085 -0.096019 0.16346 1.3667 -0.029428 0.27314 0.77682 -0.99769 0.8935 -0.61892 -1.243 1.7543 0.7228 -0.14258
of 0.70853 0.57088 -0.4716 0.18048 0.54449 0.72603 0.18157 -0.52393 0.10381 -0.17566 0.078852 -0.36216 -0.11829 -0.83336 0.11917 -0.16605 0.061555 -0.012719 -0.56623 0.013616 0.22851 -0.14396 -0.067549 -0.38157 -0.23698 -1.7037 -0.86692 -0.26704 -0.2589 0.1767 3.8676 -0.1613 -0.13273 -0.68881 0.18444 0.0052464 -0.33874 -0.078956 0.24185 0.36576 -0.34727 0.28483 0.075693 -0.062178 -0.38988 0.22902 -0.21617 -0.22562 -0.093918 -0.80375
education -0.9266 0.69467 -0.59079 -1.0542 -0.16538 0.26239 -0.37788 -1.4453 0.40885 -0.30288 0.03182 -0.18016 0.42866 -0.89767 -0.56316 -0.27027 0.045694 0.62575 1.2644 0.76223 0.55267 0.49301 -0.60455 0.044394 0.21022 -1.4351 0.31501 -1.4332 -1.1363 0.2626 3.642 0.71513 -0.51682 -1.3208 0.011802 0.35513 -0.16616 0.89067 0.73568 0.24032 -0.63902 -0.30806 0.091853 0.32939 -0.5166 0.11908 -0.16218 0.60717 0.51684 0.83162
demonstrated 0.36524 -0.011227 0.065141 -0.31025 0.32471 -0.032246 0.26492 0.03012 -0.032929 0.76007 0.49188 -0.91476 -0.2547 -0.88247 -0.26256 -0.052642 0.10755 0.1633 -0.37349 -0.63708 -0.099224 0.62827 -0.058427 -0.84005 0.46865 -0.86534 -0.6256 -0.31522 -0.19539 0.24803 1.9658 0.45351 -0.21097 -1.5534 -0.20092 -0.31612 0.12301 0.34926 -0.71488 0.36318 0.029434 -0.33096 -0.3535 -0.059493 0.38951 -0.2058 -0.23626 0.56967 -0.57075 -0.24784
community 0.14774 0.62713 -0.81852 -0.16878 0.44055 -0.12515 -0.87369 -0.060084 0.48804 -0.23463 -0.017574 -0.70673 0.77392 -0.82772 -0.69719 0.076588 0.98306 0.58452 0.77501 0.30231 0.0059052 0.58345 -1.0178 1.1176 -0.13487 -1.2102 -0.095842 -0.70611 -0.54565 -0.12818 3.4346 0.12549 -0.35702 -1.3685 -0.32705 -0.25489 -0.52943 -0.90213 0.28179 0.22691 -0.47532 -0.51934 -0.32232 0.07629 -0.10132 0.47723 -0.83698 0.021588 -0.36972 0.14843
service 0.13409 0.68926 0.45086 0.052204 -0.30604 -0.5801 -1.128 -0.030769 1.0378 -1.3936 0.18124 0.38504 0.27184 -0.1356 -0.19343 -0.40629 -1.5941 0.33679 -0.035998 -0.10354 1.0248 -0.036901 -0.58559 0.51458 -0.1289 -1.6363 0.042835 -0.71684 0.23651 0.34811 3.5559 0.38361 0.087215 -0.49308 -0.24096 0.24726 0.59281 -0.37768 -0.23602 0.2935 0.93289 -0.24058 0.24401 0.23104 -0.62022 -0.16006 -0.40435 0.29695 -0.006097 0.94897
and 0.26818 0.14346 -0.27877 0.016257 0.11384 0.69923 -0.51332 -0.47368 -0.33075 -0.13834 0.2702 0.30938 -0.45012 -0.4127 -0.09932 0.038085 0.029749 0.10076 -0.25058 -0.51818 0.34558 0.44922 0.48791 -0.080866 -0.10121 -1.3777 -0.10866 -0.23201 0.012839 -0.46508 3.8463 0.31362 0.13643 -0.52244 0.3302 0.33707 -0.35601 0.32431 0.12041 0.3512 -0.069043 0.36885 0.25168 -0.24517 0.25381 0.1367 -0.31178 -0.6321 -0.25028 -0.38097
commitment -0.062355 0.87703 -0.38967 -0.6409 0.81054 0.023536 0.48234 -0.24653 0.4466 0.48028 0.047933 0.21846 -0.69146 -0.75658 -0.37803 0.088992 0.26152 -0.10696 1.0978 -0.041727 -0.20848 0.81197 -0.69961 -1.2428 0.26261 -1.3755 0.25637 -0.25822 0.21723 0.40053 2.855 1.1818 -1.0004 -0.60938 -0.47321 -0.75575 -0.11742 -0.51046 -0.94732 -0.64601 -0.34519 -1.1831 -0.12218 -0.43863 -0.25226 0.19263 -0.50669 1.4775 -0.71831 0.31009
to 0.68047 -0.039263 0.30186 -0.17792 0.42962 0.032246 -0.41376 0.13228 -0.29847 -0.085253 0.17118 0.22419 -0.10046 -0.43653 0.33418 0.67846 0.057204 -0.34448 -0.42785 -0.43275 0.55963 0.10032 0.18677 -0.26854 0.037334 -2.0932 0.22171 -0.39868 0.20912 -0.55725 3.8826 0.47466 -0.95658 -0.37788 0.20869 -0.32752 0.12751 0.088359 0.16351 -0.21634 -0.094375 0.018324 0.21048 -0.03088 -0.19722 0.082279 -0.09434 -0.073297 -0.064699 -0.26044
their 0.41519 0.13167 -0.0569 -0.56765 0.49924 0.21288 -0.81949 0.32257 -0.065374 -0.055513 0.11837 0.36933 -0.46424 -0.072383 0.068214 0.0014523 -0.07322 -0.65668 0.11368 -0.91816 0.029319 0.38103 0.34032 -0.21496 -0.26681 -1.6509 -0.71668 -0.41272 0.48465 -0.62432 4.1939 1.4292 -0.45902 -0.51709 0.2626 0.51086 -0.23999 -0.06962 -0.4561 -0.48333 -0.39544 -0.53831 -0.070727 0.54496 0.2351 -0.18746 -0.2242 -0.11806 -0.34499 -0.86949
studies 0.33851 0.8713 -1.1798 -0.83846 -0.2591 0.47814 -0.35037 -1.0081 0.44002 0.40854 0.85632 -0.1968 0.31461 -0.26872 -0.28543 -0.016418 -0.0095062 -0.12953 -0.45706 0.65763 0.51055 0.49594 0.67403 -0.26043 0.32484 -1.2206 -0.83206 -0.90119 -1.3832 -0.019273 2.8152 -0.50022 -0.21111 -2.313 0.095875 -0.26342 -0.41797 1.0624 0.92506 0.78412 -0.32046 -0.48957 0.57872 0.52743 0.4844 -0.053682 1.0234 0.97032 -0.43932 0.16523
awarded -0.93082 1.3165 -0.35429 0.049515 0.44093 0.32824 -0.30555 0.010083 0.45349 -0.22861 0.65752 0.50753 0.15401 -0.60729 0.55793 -1.0988 0.34778 0.54866 -1.3125 -0.097135 0.72845 -0.23436 0.038538 -1.1403 -0.59231 -1.3421 -0.57291 -1.2002 -1.5576 -0.16491 1.8143 0.074608 -0.60707 -0.45074 0.32582 0.20322 0.73584 0.72092 -0.056345 -0.70793 0.64372 -0.2472 0.20327 -0.22546 -1.5313 -0.74119 -0.62726 0.25596 -0.37265 -0.27064
students -0.55206 0.79996 0.29169 -1.683 0.19747 -0.33755 -0.3999 -0.38887 -0.59127 -0.10607 -0.25685 -1.01 0.7868 -0.74343 0.14332 -0.55408 -0.29019 0.89346 0.19982 -0.32834 0.53301 1.1212 0.20935 0.81503 0.25224 -1.2498 0.30645 -1.3664 -1.3637 -0.78807 3.5129 1.0378 -0.35115 -1.4391 0.61083 0.44909 0.30551 0.076228 0.45883 0.31154 -0.59278 -0.4668 0.34924 0.93465 0.45031 -0.39806 0.3814 0.071797 -0.43046 -0.031371
who -0.19461 -0.051277 0.26445 -0.57399 1.0236 0.58923 -1.3399 0.31032 -0.89433 -0.13192 0.21305 0.29171 -0.66079 0.084125 0.76578 -0.42393 0.32445 0.13603 -0.29987 -0.046415 -0.74811 1.2134 0.24988 0.22846 0.23546 -2.6054 0.12491 -0.94028 -0.58308 -0.32325 2.8419 0.33474 -0.33902 -0.23434 0.37735 0.093804 -0.25969 0.68889 0.37689 -0.2186 -0.24244 1.0029 0.18607 0.27486 0.48089 -0.43533 -1.1012 -0.67103 -0.21652 -0.025891
demonstrate 0.34473 0.16382 -0.084255 -0.43555 0.42197 -0.1864 0.64198 0.28809 0.2429 0.69882 0.42816 -0.41577 0.0070608 -0.64579 -0.34885 0.30682 0.38024 -0.11858 0.414 -0.83489 0.19063 0.5573 -0.36012 -0.63716 0.62029 -0.98398 -0.7721 -0.75158 0.079119 -0.27793 1.9732 0.90532 -1.0402 -1.5519 -0.085954 -0.29673 0.13076 0.075396 -0.79207 0.047781 -0.10496 -0.77875 0.013739 0.10629 0.28862 -0.14522 0.10555 0.82612 -0.25811 -0.20999
in 0.33042 0.24995 -0.60874 0.10923 0.036372 0.151 -0.55083 -0.074239 -0.092307 -0.32821 0.09598 -0.82269 -0.36717 -0.67009 0.42909 0.016496 -0.23573 0.12864 -1.0953 0.43334 0.57067 -0.1036 0.20422 0.078308 -0.42795 -1.7984 -0.27865 0.11954 -0.12689 0.031744 3.8631 -0.17786 -0.082434 -0.62698 0.26497 -0.057185 -0.073521 0.46103 0.30862 0.12498 -0.48609 -0.0080272 0.031184 -0.36576 -0.42699 0.42164 -0.11666 -0.50703 -0.027273 -0.53285
academics -0.69305 0.18962 -0.08171 -0.93428 -0.22025 -0.49996 -0.19711 -0.2021 -0.8415 0.16304 -0.30475 -0.40523 0.31182 0.45327 -0.26675 -0.41231 0.73347 0.2297 0.55082 -0.60588 0.46584 0.88673 0.37767 0.51576 0.23479 -0.81572 -0.4299 -1.2561 -1.9174 0.16513 1.5932 0.3435 0.08176 -1.3898 -0.22145 -0.31697 -0.71383 0.12323 -0.35178 0.26469 -0.32362 -0.12271 0.73856 1.2518 0.94226 -0.25012 -0.40743 1.2039 -0.68565 -0.45657
achievement -0.93719 1.547 -0.53704 -0.3724 0.64032 0.024726 0.28779 -0.37655 0.85801 0.7765 0.046378 -0.18239 -0.41537 -0.3225 -0.1179 -0.72719 0.81256 0.30265 -0.048796 -0.10559 -0.063216 0.35837 -0.63501 -1.2301 0.87329 -0.83791 -1.6673 -0.73839 -0.92932 0.075164 2.1307 0.93701 0.19554 -1.394 0.30112 0.27759 0.23649 0.88886 -0.6669 -0.74613 -0.76686 -0.50074 -0.48756 -0.47366 -1.008 -0.19187 0.30433 0.97566 -0.22478 0.27133
top -0.66508 0.78362 0.74452 0.68549 0.648 -0.52191 -0.52026 0.2572 -0.13776 -0.66091 -0.43022 -0.30704 -0.88624 1.4324 0.31653 -0.44287 0.30271 -0.013176 -0.365 -0.62942 -0.0053265 -0.1942 0.6366 0.3765 -0.98731 -1.6796 -0.31415 -0.054224 -0.90695 0.17036 3.4054 0.38219 0.13579 0.38695 0.30863 0.23611 -0.4158 0.66128 -0.022794 -1.0259 0.036685 0.52651 0.17759 -0.24752 0.50828 0.18699 -0.13874 0.25994 0.0064557 -0.19891
academic -1.39 1.367 -0.93592 -0.91739 0.026591 -0.25111 -0.24394 -0.84707 0.02648 -0.0010275 -0.033955 -0.3569 -0.27522 -0.1519 0.090827 -0.56823 0.10029 0.43024 0.6636 0.44328 0.5543 0.55624 0.095193 0.0082038 -0.24736 -0.90699 -0.47256 -1.0322 -1.5612 0.79462 2.7463 0.20201 0.16106 -1.7928 0.21071 0.78317 -0.57063 1.3445 -0.049919 -0.28569 -0.24732 -0.63045 -0.062072 0.94412 -0.3558 -0.53507 0.51181 1.2422 -0.45223 0.089099
the 0.418 0.24968 -0.41242 0.1217 0.34527 -0.044457 -0.49688 -0.17862 -0.00066023 -0.6566 0.27843 -0.14767 -0.55677 0.14658 -0.0095095 0.011658 0.10204 -0.12792 -0.8443 -0.12181 -0.016801 -0.33279 -0.1552 -0.23131 -0.19181 -1.8823 -0.76746 0.099051 -0.42125 -0.19526 4.0071 -0.18594 -0.52287 -0.31681 0.00059213 0.0074449 0.17778 -0.15897 0.012041 -0.054223 -0.29871 -0.15749 -0.34758 -0.045637 -0.44251 0.18785 0.0027849 -0.18411 -0.11514 -0.78581
province 1.0481 -0.96769 -0.53122 0.97405 0.057407 -0.66999 0.50447 0.7854 0.18143 -0.36567 0.50126 -1.8973 1.0038 -1.6106 -0.32138 -0.16982 -0.2335 1.0152 0.11137 1.4865 -0.36701 -0.68202 0.30785 0.38975 0.028601 -1.6704 -0.076615 0.13202 -0.62198 -0.3884 3.564 -0.078971 -0.27956 0.06812 0.65281 0.38024 -0.7964 0.36415 0.07007 1.1944 -1.3365 0.82266 0.088684 -1.9498 -0.3918 0.025461 -0.69422 -0.024551 0.87407 -1.0059
awards -1.2881 1.3764 -0.46556 0.47258 0.29408 -0.08558 -0.48144 -0.42068 1.0865 0.75848 0.087652 0.13662 0.47037 0.95576 0.44341 -1.2069 0.20834 0.08407 -1.0893 -0.64859 1.2291 -0.036579 0.20667 -0.43155 -0.47769 -0.77131 -2.2169 -0.97187 -1.9104 -0.75994 2.1867 1.2334 -0.083785 -0.61708 -0.12755 0.24823 0.50052 -0.02607 -0.44263 -1.1816 -0.060102 0.56077 -0.72044 -0.91444 -1.3961 -0.33906 -0.29881 -0.12703 -0.30296 0.13092
for 0.15272 0.36181 -0.22168 0.066051 0.13029 0.37075 -0.75874 -0.44722 0.22563 0.10208 0.054225 0.13494 -0.43052 -0.2134 0.56139 -0.21445 0.077974 0.10137 -0.51306 -0.40295 0.40639 0.23309 0.20696 -0.12668 -0.50634 -1.7131 0.077183 -0.39138 -0.10594 -0.23743 3.9552 0.66596 -0.61841 -0.3268 0.37021 0.25764 0.38977 0.27121 0.043024 -0.34322 0.020339 0.2142 0.044097 0.14003 -0.20079 0.074794 -0.36076 0.43382 -0.084617 0.1214
with 0.25616 0.43694 -0.11889 0.20345 0.41959 0.85863 -0.60344 -0.31835 -0.6718 0.003984 -0.075159 0.11043 -0.73534 0.27436 0.054015 -0.23828 -0.13767 0.011573 -0.46623 -0.55233 0.083317 0.55938 0.51903 -0.27065 -0.28211 -1.3918 0.17498 0.26586 0.061449 -0.273 3.9032 0.38169 -0.056009 -0.004425 0.24033 0.30675 -0.12638 0.33436 0.075485 -0.036218 0.13691 0.37762 -0.12159 -0.13808 0.19505 0.22793 -0.17304 -0.07573 -0.25868 -0.39339
highest -1.005 1.2502 0.30508 -0.29577 0.88423 -0.33187 0.27826 0.059654 1.046 0.011507 0.3433 -0.82165 0.38816 -0.2036 0.35517 -0.33289 0.038854 -0.24647 -0.99334 0.071364 -0.21287 -0.77409 0.13486 -0.18917 -0.51648 -1.4066 -0.5873 -0.29088 -0.86439 1.0528 2.9958 0.18249 0.68025 -0.20623 0.73411 -0.49545 0.17813 0.054192 -0.24585 -0.75738 -1.0708 -0.037519 0.32101 0.069098 -1.1657 -0.32059 0.067228 0.065606 0.17372 -0.42047
pathway 0.83234 0.79963 -0.075486 0.29521 0.06425 1.1566 0.66236 -0.089748 1.3188 1.4614 1.1909 -0.42453 -0.18577 0.20286 -0.77912 0.78504 0.89759 -0.33454 0.59224 0.12333 -0.0048074 -1.1922 -0.44599 0.75105 0.41872 -0.17628 1.0766 0.14882 0.64513 -0.67098 1.4359 0.039105 -0.32854 -1.4386 0.9717 0.027736 0.38169 -0.34915 0.19407 1.4018 -0.031534 -1.1987 -1.0762 -0.036414 0.54432 -0.6406 1.4095 0.19092 0.48711 -0.50633
teacher -0.94921 0.98376 -0.57502 -1.3822 0.78417 0.32843 -0.43651 0.20278 -0.26856 0.29097 0.21552 -0.12359 0.18165 -0.20466 0.28223 -0.81792 -0.43124 1.0035 0.5199 0.51358 0.22949 1.3671 -0.49405 0.70599 0.63063 -1.7086 -0.070777 -1.0876 -0.8005 0.051295 2.3423 -0.29156 -0.24 -0.58339 0.76433 0.46498 0.19742 0.67336 1.105 0.13777 -0.18365 0.39083 -0.22634 0.094744 0.45203 -0.62911 0.52827 -0.26174 0.020753 0.9038
graduating -1.4839 0.92187 -0.62401 -1.7835 -0.24819 -0.40298 -0.96158 0.061561 -0.69882 -0.14735 0.56229 0.010309 0.21293 -0.40876 -0.31415 -0.52344 -0.93185 1.4401 -0.80603 0.726 0.96804 0.70162 0.055686 -0.041277 -0.19088 -1.5201 0.11612 -0.8784 -1.098 -0.28398 1.3873 0.28186 -0.42496 -1.1986 0.84301 -0.15287 -0.10085 0.87664 0.9228 -0.019209 -0.82729 -0.77913 0.02801 0.046861 -1.1042 -0.36523 0.74209 -0.37694 -0.82697 0.34689
high -0.65758 1.2502 0.19082 -0.6742 -0.10125 -0.046932 -0.27648 -0.48253 0.39254 0.3704 -0.24111 -0.6429 0.27676 -0.62422 -0.52203 0.29799 -0.1996 0.36884 -0.81686 -0.48865 0.11511 0.066147 -0.38797 -0.18239 -0.5759 -1.8776 0.61045 0.43434 -0.090497 0.17718 3.4808 0.026707 0.60486 -0.7885 1.248 -0.32864 -0.15526 0.12868 0.65885 -0.27297 -0.69856 0.46953 0.19621 0.40444 0.061996 0.046055 0.72038 -0.45636 -0.19089 0.099351
school -0.90629 1.2485 -0.79692 -1.4027 -0.038458 -0.25177 -1.2838 -0.58413 -0.11179 -0.56908 -0.34842 -0.39626 -0.0090178 -1.0691 -0.35368 -0.052826 -0.37056 1.0931 -0.19205 0.44648 0.45169 0.72104 -0.61103 0.6315 -0.49044 -1.7517 0.055979 -0.52281 -1.0248 -0.89142 3.0695 0.14483 -0.13938 -1.3907 1.2123 0.40173 0.4171 0.27364 0.98673 0.027599 -0.8724 -0.51648 -0.30662 0.37784 0.016734 0.23813 0.49411 -0.56643 -0.18744 0.62809
entering -0.15055 0.02245 0.22715 -0.29931 0.052047 -0.29665 -0.71112 0.76361 0.53313 -0.30004 0.27536 -0.783 -0.024919 0.34375 0.099389 0.19768 0.047439 -0.30075 -0.41498 0.12175 0.41869 -0.021978 -0.078443 0.64937 -0.13104 -1.4247 0.74412 0.057627 0.62409 -0.22582 2.3693 0.3417 -0.24486 -0.61637 0.36906 0.11536 0.131 0.21987 -0.31978 0.12252 -0.50076 -0.59154 0.4501 0.2555 -0.30524 -0.3781 0.076264 -0.26354 0.21518 -0.69143
programs 0.04501 0.3076 0.37082 -0.61291 -1.0105 0.17725 -0.82357 -1.4555 0.90333 0.44444 -0.19924 0.040644 0.53004 0.1684 0.046462 -0.27628 -0.18192 0.92389 0.92426 0.34468 0.60439 0.14596 0.032791 0.20394 -0.36158 -1.1259 0.25133 -0.91864 -0.12857 -0.51871 3.691 0.75809 -0.76885 -1.2806 -0.11082 1.017 0.11534 0.3173 -0.3699 -0.53978 -0.32115 -0.58336 0.071154 0.52191 -0.18888 -0.15041 0.2455 1.1311 -0.59377 1.0676
financial 0.67226 0.0049257 0.30049 0.33917 -0.11859 -0.43213 -0.064794 -0.35349 -0.1352 -0.31288 -0.36311 0.95772 -1.3127 0.0045216 0.12404 0.30968 -0.11743 -0.55025 0.39012 0.024453 1.3455 -0.015076 -0.62894 -0.77782 -0.63266 -1.2771 -0.36317 -0.41216 -0.28301 0.9475 3.6989 0.62595 1.3024 -0.56111 -0.76491 -0.27065 -1.1322 -0.53162 1.096 -1.0186 -0.7311 -0.39185 0.82753 0.4969 -0.14401 0.0095985 -0.33367 1.2218 0.71828 0.52732
support 0.36274 -0.033799 0.73714 -0.41275 0.17885 0.28384 -0.24078 -0.26094 -0.059845 -0.04074 0.076052 -0.10649 0.2413 -0.27102 -1.0219 -0.14183 0.15021 -0.31005 0.7186 -0.42428 -0.049672 0.1063 -0.25183 -0.61771 -0.10167 -1.73 0.38166 -0.72861 -0.46378 0.56633 3.7755 0.7574 -0.99729 -0.73075 -0.32682 -0.23346 -0.12167 -0.1636 -0.7929 -0.63738 0.20036 -0.033997 -0.3645 -0.38151 -0.12014 0.019369 -0.89391 0.51591 -0.2976 0.067125
pursuing 0.2273 -0.29604 -0.15329 -0.47744 -0.011823 0.21206 -0.10395 0.18728 0.1196 0.62722 -0.16029 0.19559 -0.95095 -0.02502 -0.54444 -0.46006 0.65097 0.31528 0.39113 0.15809 0.54834 0.85728 -0.055588 -0.19852 -0.087363 -1.6808 0.48152 -0.6574 0.41007 -0.21416 1.6623 0.14877 -0.76739 -1.1829 0.24024 -0.23868 -1.062 0.31218 -0.83893 -0.17197 -0.33166 -0.76596 0.64468 0.31678 0.14347 -1.1709 0.18287 0.75845 -0.27562 0.021425
ubc -0.41153 0.13281 -0.45988 0.13431 -1.0034 -0.34806 -0.39998 -0.35248 0.2964 -0.14241 0.87694 0.026253 0.92342 0.024382 -1.0158 0.2746 -0.88914 1.6063 -0.62515 0.49653 0.21459 0.90552 -0.49427 0.080086 -0.18309 0.11624 -0.047806 0.14086 -1.036 -0.5172 -0.71167 0.61519 0.058562 -0.67181 -0.089309 -0.19345 -0.30185 -0.69859 0.88747 -0.43872 0.28995 -0.83239 0.39707 0.21004 -1.12 0.83571 0.37309 0.5452 -0.065051 -0.15728
presidential 0.085331 0.85899 0.73315 0.7434 0.077958 0.039282 -0.53268 0.27857 -0.66429 -1.0061 -1.378 -0.96279 0.12513 0.45579 0.32195 -0.38865 -0.38276 -0.51431 0.18859 -0.55034 -0.0223 -0.075589 0.39603 -0.85508 0.03735 -1.9842 -0.1995 0.15803 -0.43158 1.0514 2.0571 0.21188 -2.3273 -1.2511 -0.19145 -0.17998 -0.37836 0.7434 -0.94869 -0.85779 -0.58619 0.67419 -0.93372 -0.30881 -0.84459 -0.29009 -1.021 -0.12411 0.72356 -0.17101
scholars 0.11697 0.57276 -0.40445 -1.0742 0.66476 -0.43327 -0.33538 -0.43453 -0.82114 0.28092 -0.39459 0.21456 0.54468 -0.094013 0.045648 -0.11785 0.69882 -0.81148 0.16245 0.14751 0.29688 0.13872 0.34729 0.24785 0.78728 -1.2788 -1.2783 -1.6457 -2.0484 -0.14253 1.8666 -0.72633 0.0046483 -1.5467 0.14124 -0.74107 -0.4491 0.37982 -0.70523 0.83501 -0.16196 -0.082686 0.5005 1.2597 0.51475 0.23058 -0.20335 0.93047 -1.0628 -0.95092
award -1.3086 1.7375 -0.57947 0.39603 0.54224 0.41411 -0.6104 -0.65784 1.0299 0.58311 0.29289 0.76647 0.23736 0.26949 0.61541 -1.1809 0.84402 0.59988 -1.0476 -0.16932 0.69944 0.12318 -0.41059 -1.0214 0.023593 -1.3111 -1.7193 -1.2015 -1.9113 -0.5664 1.8896 0.4123 -0.36942 -0.74746 -0.22967 0.19631 0.52465 0.35923 0.045232 -1.1562 0.20787 0.55651 -0.8668 -0.8587 -1.3831 -0.33113 -0.46826 0.11572 -0.42546 0.45634
program 0.1212 0.56395 0.18111 -0.3975 -0.75106 0.073103 -1.0274 -0.98912 1.2778 0.17385 0.15657 0.053953 0.13251 0.457 0.38519 -0.24161 -0.071515 1.0867 0.3162 0.65149 0.61019 0.087602 -0.44155 -0.11931 -0.14353 -1.7147 0.33433 -0.50214 -0.39569 -0.14515 3.5247 0.17595 -1.0814 -0.97564 -0.34277 0.53825 0.3568 0.19635 0.026791 -0.68356 -0.2875 -0.57315 -0.092064 -0.11235 -0.28374 -0.34423 0.52503 1.2107 -0.61298 1.3741
university -1.1082 1.2916 -0.78751 -0.45955 -0.40788 -0.53387 -0.91468 -0.48577 -0.31858 -0.33494 0.50093 -0.50392 0.029449 -1.1748 -0.47245 0.27201 -0.11093 1.0152 -1.0427 1.4929 0.70221 0.72141 -0.10898 -0.0019169 -0.076224 -2.5398 0.12008 -0.86093 -2.122 -0.90913 2.6149 -0.049744 -0.096555 -2.2488 -0.060325 0.0083282 -0.10552 1.2435 1.7389 0.66512 -0.11836 -0.061496 -0.2916 0.37698 -0.097014 0.48428 0.3657 0.26268 -0.54315 0.035944
extracurricular -0.61923 1.5999 -1.3281 -0.29217 -0.32089 -0.020111 0.18399 -0.34657 0.23751 0.81518 -0.20962 -0.36127 0.11814 -0.33666 0.31936 -0.67248 0.52012 1.1542 0.83926 -0.41457 0.6954 0.29158 0.18716 1.2007 -1.0539 0.37934 0.34878 -0.65799 -0.31663 -0.74079 1.1375 1.5714 0.039011 -1.5302 0.64264 0.97567 -0.3467 0.20451 -0.87235 0.46213 -0.4434 -0.8862 -0.39329 1.3543 0.44471 -1.5869 0.73204 1.1151 -0.79125 0.48876
involvement 0.82211 0.18289 -0.33517 0.093586 0.12571 0.94279 0.37927 0.32569 0.12379 0.19657 -0.0039485 -0.070492 -1.1125 -0.4657 0.42259 -0.52166 0.07382 0.18075 0.23656 0.5591 0.45269 0.58542 0.027141 0.078836 -0.64051 -2.1258 0.15462 -0.42815 -0.070461 0.53934 2.013 -0.18544 -0.50196 -1.3945 -0.14941 -0.031942 -0.72813 -0.70259 -0.91644 0.053479 -0.37938 0.020087 0.18614 -0.096169 0.56239 -0.91381 -0.70956 1.1579 0.050169 -0.397
sfu -0.54618 -0.14579 0.18183 -0.21987 -0.38016 0.33007 0.27945 -0.38614 -0.20746 -0.23765 0.70549 -0.24123 0.12062 -0.60458 -0.45996 1.0853 0.1407 1.0239 -0.23822 0.36255 0.21795 0.16937 -0.45298 0.3175 -0.079339 0.7349 0.42394 -0.087376 -0.93426 -0.27881 -0.70048 -0.014851 0.45884 -0.49219 -0.058377 0.19469 0.42118 -0.80566 0.47375 -0.3566 0.55033 -0.92303 -0.61257 0.52042 -0.41554 0.065239 0.53805 0.31323 -0.2055 -0.46457
entrance 0.61761 1.2927 0.022985 -0.57554 0.44854 -0.80608 -0.32239 0.26533 0.20664 -0.63489 -0.72362 -0.89716 0.29276 0.27638 -0.81288 0.14885 0.26779 -0.054417 -0.44604 -0.51678 0.81104 0.014649 -1.3884 0.26869 -0.19281 -0.99607 0.33657 1.0401 -0.40039 -0.83196 2.4587 -0.41215 0.094218 -0.4918 0.55604 0.70577 1.259 0.036124 -0.27711 0.21004 0.27379 -0.31598 -0.13272 0.4633 -0.44483 -0.71618 0.3443 -0.84624 0.64054 -1.0793
simon -0.71426 -0.08 -0.21236 0.12021 0.66998 0.14399 -0.79978 -0.25921 -0.2934 0.14471 -0.012125 0.6194 -1.4326 -0.46535 0.47216 -0.26075 1.2786 -0.9787 -0.61005 0.087655 0.34527 1.0163 -0.15772 0.20556 0.28599 -0.32465 0.28908 -1.0046 -0.53464 -0.0089364 1.4284 -0.79597 0.42288 -0.17629 -0.65392 -0.40977 0.44457 -0.21547 0.72221 -0.34614 1.1899 0.32498 -0.30762 -0.86896 0.56447 0.57543 -0.49094 -1.2461 0.1324 0.71613
fraser -0.76974 0.19194 -0.20315 0.48842 -0.093311 1.0403 -0.90418 -0.19199 0.33888 -1.4587 -0.012193 0.89137 -0.22225 -0.81633 -0.20989 0.82182 0.8764 -0.24753 -0.669 0.14938 0.45629 0.39864 0.37441 -0.068312 1.0476 -0.55126 0.18317 -0.23205 -1.0301 -0.056116 0.50612 -0.3339 0.76369 0.031262 0.22549 -0.20043 -0.20441 -0.31832 0.51463 0.11598 0.18906 0.94378 -0.53925 -0.6326 -0.42699 0.17963 -0.061303 -0.40149 0.3441 -0.13016
need 0.41495 0.11293 0.45591 -0.51796 0.3896 -0.21307 -0.10788 -0.11875 0.15723 -0.015614 0.010519 0.62965 -0.02517 -0.059925 0.28582 0.70567 0.62114 -0.16097 0.88253 -1.2017 -0.34935 0.20968 0.17506 -0.20855 0.49624 -1.411 -0.24267 -0.41445 0.74857 -0.38625 3.9179 1.412 -0.8121 -0.59706 -0.060011 0.35452 0.16539 0.25601 0.24476 -0.38762 -0.17842 -0.20283 0.34743 0.52291 0.29194 0.47418 -0.04308 0.77093 -0.27575 0.57742
emphasis -0.45178 0.4213 -0.93062 -0.88726 0.29961 0.22083 0.26302 -1.0498 0.43859 0.38919 0.15329 -0.0060216 -0.21558 -0.44329 -0.8519 -0.22105 0.040532 0.029999 0.64768 -0.48779 0.12122 0.058415 -0.48082 -0.49085 0.42241 -0.88738 -0.54577 -0.087488 0.43169 0.41169 2.7489 0.78655 0.12518 -1.0339 -0.26874 0.13817 -0.56303 0.49576 -0.74576 0.31268 -0.099602 -0.31301 -0.25959 0.28675 0.17453 0.055293 0.53562 0.87419 -0.21106 0.36083
on 0.30045 0.25006 -0.16692 0.1923 0.026921 -0.079486 -0.91383 -0.1974 -0.053413 -0.40846 -0.26844 -0.28212 -0.5 0.1221 0.3903 0.17797 -0.4429 -0.40478 -0.9505 -0.16897 0.77793 0.33525 0.3346 -0.1754 -0.12017 -1.7861 0.29241 0.55933 0.029982 -0.32417 3.9297 0.1088 -0.57335 -0.17842 0.0041748 -0.16309 0.45077 -0.16123 -0.17311 -0.087889 -0.089032 0.062001 -0.19946 -0.38863 -0.18232 0.060751 0.098603 -0.07131 0.23052 -0.51939
uvic -0.75781 0.45402 0.2578 -0.96017 -0.63503 -0.48868 0.86214 -0.3293 0.58817 -0.072614 0.13605 -0.032671 0.83387 -0.74517 -0.77651 0.061136 -0.23068 0.3175 0.45515 0.98551 -0.28703 -0.50855 -0.39029 0.0745 0.19637 0.25277 0.62605 -0.55206 -0.55886 -0.56287 -1.5401 0.48847 0.25345 -0.56707 -0.40233 0.2076 0.25084 -0.30892 -0.30778 0.13538 0.22568 -0.86505 0.47495 0.29113 0.018719 -0.052835 0.4495 -0.37977 -0.029711 -0.33661
victoria -0.23513 1.4293 -0.90955 0.33118 -0.46635 0.36443 -0.74741 0.64617 0.46487 -1.169 0.061784 0.26533 0.36768 -1.116 -0.16762 -0.025939 0.023841 0.41994 -0.86126 0.29299 0.47901 0.03664 -0.47268 0.37072 0.090531 -1.1274 0.2622 0.11917 -0.44404 -0.51434 1.3195 0.13355 0.71409 -0.61155 0.27612 0.16393 0.41564 0.30015 -0.069025 -0.35146 0.15573 -0.046557 0.59816 -1.0462 -0.66343 0.25221 -0.79785 -1.6435 0.69844 -0.34334
qualities 0.12394 0.78912 -0.84788 -0.047063 1.2842 0.49863 0.74718 -0.4073 -0.0036229 1.1859 0.60505 0.80037 0.16944 -0.30528 -0.74512 -0.23619 0.35444 0.2123 0.15383 -1.1364 -1.1667 0.58242 0.19484 -0.91934 0.5464 -0.36607 -1.3551 -0.17057 0.51953 0.081335 1.6453 0.63087 0.18778 -1.3063 0.8669 0.51636 -0.35242 0.85202 -0.74249 -0.27578 0.21972 -0.014783 -0.19308 0.55197 0.080874 0.42345 -0.18563 0.44989 -0.033383 -0.0071443
achievements -0.51933 1.3668 -0.6874 0.09522 0.18607 -0.33386 -0.050129 -0.40298 0.33373 0.65225 0.071441 0.13055 -0.44386 -0.51709 -0.026607 -0.86961 0.37729 0.24573 0.57149 -0.10095 -0.024548 0.032306 -0.31729 -1.5872 1.1099 -0.5705 -1.4604 -0.78591 -0.72441 0.27899 2.1267 1.0762 0.27505 -1.2648 -0.074705 0.4628 -0.36034 1.2466 -1.3165 -0.041516 -0.97747 -0.64918 -0.28247 -0.34909 -0.50508 0.019245 -0.4963 1.0545 -0.19404 -0.70951
kpu -0.019678 -1.0487 0.24997 1.177 -0.15232 -1.0433 0.82768 -0.097074 0.49579 -1.2725 0.41057 0.36595 0.049714 -0.32454 0.71505 0.30694 -0.053053 0.096197 -0.011039 -0.8653 -0.60049 -1.4481 1.0617 -0.25619 -0.18564 0.76195 0.52797 -0.34418 -2.012 0.87879 -0.23507 0.080197 -1.2022 -0.33701 -0.50803 -0.51564 0.79452 -0.29978 0.54709 0.12388 -0.39944 -0.15932 -0.84921 0.36681 -0.90166 0.42876 -0.7333 0.76782 1.2699 -0.2079
kwantlen -0.9867 -0.21008 -0.069708 -0.13741 -0.4522 -0.79625 -0.011642 -0.00032517 -0.030235 0.7311 0.71127 -0.14726 1.2067 -0.39703 -0.82136 0.76305 -0.10077 0.85191 -0.037182 1.6077 0.0030734 -0.10571 -0.97417 0.60056 0.79654 -0.4258 0.43725 -1.0243 -1.8499 -0.70094 -0.95855 0.1839 0.17166 -0.67237 0.038207 0.039266 0.025479 -0.24733 0.23018 -0.65952 -0.46418 -0.90061 -0.55173 0.81968 0.40866 0.50702 0.51025 0.1252 0.47436 -1.0916
polytechnic -0.83003 0.33632 -0.3885 -0.50653 -1.057 -1.1783 -0.19655 -0.43008 -0.54071 0.12139 0.61948 -0.48886 0.51179 -1.2916 -1.1254 0.68381 -0.28991 1.2763 -0.30967 1.5243 1.0786 0.36833 -1.0084 0.11805 -0.51327 -1.222 0.65583 -0.68096 -2.0008 -0.58195 0.44345 -0.14221 -0.065066 -1.4572 0.58442 0.27021 -0.13051 0.30933 1.3068 0.045854 -0.23165 -0.30738 0.0028215 0.088646 -0.28731 0.42806 0.56325 -0.37383 0.33538 -0.97954
graduates -0.92762 0.67314 0.58997 -1.6668 0.13115 -0.63879 -0.70838 -0.073257 -0.3964 -0.068816 0.14887 -0.39534 1.1742 -0.52399 -0.14033 -0.13307 -0.076758 0.98478 0.25481 0.0077023 0.51765 0.24256 0.28147 0.040763 -0.071261 -0.78434 -0.10309 -1.4959 -1.3186 -0.21317 1.7237 0.98764 -0.12649 -1.1514 1.1536 0.22448 -0.41185 0.83029 0.64982 -0.61261 -0.8145 -0.63528 0.53507 0.70308 -0.018485 -0.68982 0.65425 0.57215 -0.65569 0.41075
a 0.21705 0.46515 -0.46757 0.10082 1.0135 0.74845 -0.53104 -0.26256 0.16812 0.13182 -0.24909 -0.44185 -0.21739 0.51004 0.13448 -0.43141 -0.03123 0.20674 -0.78138 -0.20148 -0.097401 0.16088 -0.61836 -0.18504 -0.12461 -2.2526 -0.22321 0.5043 0.32257 0.15313 3.9636 -0.71365 -0.67012 0.28388 0.21738 0.14433 0.25926 0.23434 0.4274 -0.44451 0.13813 0.36973 -0.64289 0.024142 -0.039315 -0.26037 0.12017 -0.043782 0.41013 0.1796
minimum -0.64289 0.71077 0.66823 -0.93522 0.29324 0.15178 0.91893 -0.19325 0.58825 0.16678 -0.054066 -0.52062 0.79782 -0.20729 0.81127 -0.1159 0.38045 -0.11486 0.12068 -1.0925 0.23218 -0.58186 -0.027425 -0.2436 -0.58523 -0.71449 0.70647 -0.39707 0.45827 0.98404 3.2078 0.4185 -0.67277 0.36274 0.8113 -0.26975 0.81781 -0.15408 0.35352 -0.26198 -0.37467 0.057124 0.73714 1.1236 -1.3788 -0.93479 0.43425 0.7912 -0.09169 0.66253
gpa -1.5213 0.468 0.67236 -0.91504 1.4504 -0.029765 0.84992 -1.0096 -0.20441 0.30295 1.1627 -0.28894 0.29006 -0.15038 0.18193 0.12983 -0.28778 0.78066 0.38448 -0.11448 -0.38314 -0.23312 -0.44388 -0.1835 -0.17271 0.57453 1.1634 -0.37179 -1.1344 0.16987 1.2651 0.72335 -0.14544 0.55711 1.246 -0.39511 0.30722 -0.78965 0.33654 -0.53467 -0.83146 -1.0098 -0.37665 0.50757 -1.3657 -0.99273 1.7915 1.4523 -0.37969 -0.1911
requirement -0.76801 0.11887 0.14601 -0.93121 0.17741 0.50752 0.41441 -0.27671 0.70665 -0.034403 0.58843 -0.08522 0.83009 -0.22859 0.30537 0.6391 -0.3162 -0.33712 0.62383 -0.76505 0.32221 -0.47758 -0.58172 -0.35651 -0.39768 -1.1851 0.11419 -0.32176 0.35437 0.46305 2.2999 0.24553 -0.87181 -0.37475 0.76578 -0.23412 1.0505 -0.14351 -0.31351 -0.33109 -0.15952 -0.56348 0.70192 0.99768 -1.3269 -0.43151 0.099923 1.2984 0.24517 0.25257
centennial -0.42418 1.1598 -0.8452 0.72127 0.34319 -0.63432 -0.85903 -0.6209 0.88123 -0.08805 -0.32553 -0.66723 0.051833 -0.30103 0.47955 -0.21331 -0.50408 0.62739 -1.3163 0.11445 1.2219 -0.29303 -1.1692 -0.83311 -0.18261 -0.49851 -0.74797 -0.09131 -0.083875 -0.6559 0.25759 0.41445 -0.83757 -0.45073 -0.093289 -0.27793 0.43629 -0.064053 -0.087992 0.59133 -0.98996 -0.86952 -0.66866 -0.28212 -0.30583 0.97681 -0.042487 -0.22691 -0.27766 -0.52401
demonstrating -0.16946 -0.28053 -0.038571 -0.53515 0.33205 -0.21768 0.58542 -0.10364 0.086222 0.84294 0.27194 -0.91492 -0.12995 -0.63377 -0.52837 -0.22478 0.13363 0.28797 0.13822 -0.55794 0.29905 0.8949 -0.26117 -0.61593 0.67201 -0.54054 -0.28104 -0.32058 0.049731 -0.08395 1.5127 0.52385 -0.52935 -1.4009 -0.20426 0.016401 0.10504 0.10065 -0.59845 0.26051 0.0090198 -0.7211 -0.17324 0.13877 0.54056 -0.4716 0.11129 0.51275 -0.12871 -0.59296
engagement 0.31761 0.70608 -1.0803 -0.11316 0.1 0.098523 0.54186 0.39634 0.18882 -0.015531 -0.088536 0.10471 -0.481 -0.087112 -0.62384 -0.051765 -0.11311 -0.059915 0.16109 0.23194 0.76534 0.61085 -0.37716 -0.4244 0.28763 -1.0549 0.20991 -0.25557 0.41806 0.53167 2.2185 0.25831 -0.58153 -0.29175 -0.20977 -0.54403 -0.38357 -0.20119 -1.4046 -0.29637 -0.21855 -0.73383 0.037762 -0.57472 0.16732 -0.96311 0.55631 0.020456 -0.72416 0.82477
waiver -0.60215 0.63983 0.0030287 0.0042776 -0.72678 0.59828 -0.26592 0.38767 0.76204 0.07412 0.33746 0.70418 1.001 0.20301 1.0087 0.68348 -0.31145 -0.77701 0.87359 -0.22881 0.35461 -0.38866 -0.53082 -0.68789 -0.36923 -1.1678 0.97033 0.052224 0.33453 -0.54333 0.83989 0.14449 -1.1845 -0.34509 0.010122 -0.19524 0.94188 -0.48558 -0.27958 -0.53314 0.041427 -0.074207 0.72446 0.79084 -1.4959 -0.85454 0.034993 1.5273 -0.52968 0.17607
youth -0.93975 0.77242 -0.83969 -0.5801 0.22782 -0.20413 -0.43093 -0.19348 -0.11053 0.20346 0.6467 -0.56894 -0.24374 0.0092597 -0.061275 -0.71347 0.54478 1.0417 -0.26999 0.61681 -0.26387 0.67223 -0.094817 1.2003 -0.62867 -1.0504 -0.023396 -0.72682 -0.84219 0.20545 2.7109 1.2446 -0.37056 -1.2764 -0.44853 0.60618 -0.16881 -0.35525 -0.040057 -0.55194 -0.4728 -0.79568 -0.37657 -0.20775 0.72866 -0.08294 -0.52826 -0.37364 0.4335 -0.13457
care 0.68353 0.22095 -0.056607 -0.97564 0.021986 0.83748 -0.68084 -0.32343 1.2331 -0.2715 -0.27033 0.10855 0.391 -0.33831 0.078469 0.078807 -0.34752 0.16324 1.281 -0.18929 -0.10121 0.813 -0.567 -0.091478 -0.068022 -1.4918 -0.34183 -0.74081 0.30182 0.151 3.3446 1.2234 -0.17981 -0.52359 -0.17783 0.26673 0.21092 0.37758 1.4058 -0.67737 -0.49647 -0.2898 0.42994 0.97378 0.27325 0.30263 -0.62122 0.17708 0.10696 1.4949
tuition -0.80927 0.92775 0.36907 -2.3041 -0.8359 0.63611 -0.36881 -0.30654 0.32879 0.59638 -0.55561 -0.23095 1.5014 -1.2346 0.68342 0.023087 -0.21655 0.1998 1.108 -0.27672 1.1973 -0.89016 -1.0002 0.32188 -0.42252 -1.2787 0.81705 -0.74128 -0.56794 -0.39983 2.0106 1.3479 0.1985 0.13289 0.63094 0.21271 0.22099 0.088662 0.92109 -0.3915 -0.62541 0.44178 -0.29104 1.414 -0.9059 -1.1514 0.80297 0.60717 -0.42297 0.45149
current -0.097534 0.79739 0.45293 0.0088687 -0.051178 0.018178 -0.11791 -0.69793 -0.1594 -0.33886 0.21386 0.11945 -0.33078 0.070846 0.53858 0.52766 -0.097989 0.03439 0.066567 -0.27172 0.11587 -0.77042 -0.23377 -0.085757 -0.27538 -1.2693 0.1567 -0.045892 -0.34532 1.3033 3.6207 0.0091328 -0.1268 -0.61576 0.06601 -0.25451 0.0013535 -0.051221 -0.22177 -0.44328 -0.54152 0.19691 -0.33034 0.0037052 -0.85744 0.16703 0.041405 0.59579 -0.097806 0.18642
or 0.26358 0.18747 0.044394 -0.19119 0.45455 0.66445 0.25855 -0.64886 -0.67653 0.045254 0.071081 0.3645 0.74863 -0.17489 0.28723 0.43277 -0.39184 -0.048568 -0.21373 -0.72992 0.13902 -0.23308 0.70256 0.2176 -0.20647 -1.415 -0.32587 -0.075019 0.88536 -0.56679 4.0296 0.019803 -0.57259 -0.060878 0.14667 0.16532 0.21188 -0.38358 0.42748 -0.096921 0.19285 0.021779 0.58562 0.97633 0.20384 -0.2162 -0.021486 -0.42936 0.52879 -0.12598
former -0.53526 0.54543 0.11158 0.59775 0.30465 0.19476 -1.2582 0.32169 -0.89948 -0.94368 -0.0071382 0.30246 -0.96258 0.21507 0.12341 -0.24146 0.13193 0.70984 0.053988 0.47934 -0.48787 0.40946 -0.50779 0.12712 -1.2259 -2.6958 0.39519 -0.4661 -1.1562 0.6446 2.3831 -0.54043 -0.5875 -0.59775 0.21628 0.36757 -0.47202 0.11992 0.2603 -0.5585 -0.17629 1.0493 -0.36595 -0.33532 0.093984 -0.070277 -1.4673 -0.46506 -0.22689 -0.12854
at 0.27724 0.88469 -0.26247 0.084104 0.40813 -1.1697 -0.68522 0.1427 -0.57345 -0.58575 -0.50834 -0.86411 -0.52596 -0.56379 0.32862 0.43393 -0.21248 0.49365 -1.8137 -0.035741 1.3227 0.80865 0.012217 -0.087017 -0.16813 -1.5935 0.47034 0.26097 -0.41666 -0.38526 3.4413 0.34383 -0.035895 -0.5678 0.18377 -0.48647 0.42646 0.4408 1.0931 0.063915 -0.064305 -0.29231 0.086502 0.35245 0.17891 0.25941 0.37069 -0.51611 0.023163 0.05779
surrey -0.88623 0.38717 -0.68619 -0.21877 -0.030024 0.27511 -0.60183 0.72794 0.86999 -0.94249 -0.24825 -0.052811 -0.32002 -1.2916 -1.3144 0.85351 0.65099 0.70824 -1.669 0.92727 0.86309 0.78973 0.84578 0.77936 -0.15752 -0.35888 0.35737 -0.24398 -0.31723 0.41801 0.76617 -0.33508 1.277 -0.19917 1.8308 0.12313 0.93721 0.52102 -0.21432 -0.52335 0.22543 -1.136 -0.7251 0.63286 -0.25658 1.25 -0.72019 -0.75464 0.41628 -0.34382
schools -0.55586 0.39517 -0.26923 -1.2833 -0.64747 -0.23652 -0.86293 -0.69774 0.086948 -0.3936 -0.329 -0.58817 0.50561 -0.83735 -0.51139 -0.022911 -0.11054 0.73848 0.71491 0.11191 0.19196 0.086972 -0.30121 0.98204 -0.68191 -1.2126 0.036823 -0.93067 -0.80033 -0.78678 3.5054 0.83496 0.04513 -1.3882 0.74704 0.53309 0.44379 0.12142 0.27758 0.43332 -1.0756 -0.65919 0.46444 0.95934 -0.042395 0.7325 -0.36265 0.0014583 -0.26136 0.1559
district -0.27896 -0.63728 -0.50534 0.31013 0.36839 -0.54706 0.40083 0.44362 0.62641 -1.3909 -1.0806 -1.9063 0.28615 -1.3979 -0.42639 0.16845 0.78329 0.49424 0.27511 0.70024 0.49592 -0.7463 -0.27301 1.1971 -1.076 -1.7345 -0.30244 0.23436 -1.3131 -1.0174 2.9439 -1.1441 0.40474 -0.81523 1.2169 0.053004 0.75009 0.36677 0.53634 0.61355 -1.2986 0.933 -0.18591 -0.86878 -1.3558 0.11293 -0.65068 -0.96977 0.85731 0.79817
standing -0.4088 0.67613 0.073499 -0.18056 1.2443 -0.091725 0.038587 0.19788 -0.045789 -1.1083 -0.59751 -0.38534 -0.33612 0.33283 -0.12782 -0.029539 -0.11299 0.064359 0.19154 -0.92261 -0.2098 0.35532 -0.12229 -0.53483 0.41765 -1.4884 0.24235 0.58074 -0.26514 0.15452 2.7154 0.36191 0.044216 -0.15485 -0.65388 0.10459 0.17736 0.11937 -0.47623 -0.1801 -0.60745 -0.27693 -0.32172 0.64815 0.011543 -0.36395 -0.48101 -0.68001 -0.12936 -0.74168
abbotsford -0.78801 0.25762 -0.03839 -0.038668 -0.67539 -0.51997 -0.25721 1.1789 0.54784 -0.34259 0.45429 -0.34154 0.77459 0.83524 -1.0858 0.79898 -0.062535 0.35958 -1.1468 0.58722 0.38198 0.42708 -0.36763 0.6141 -0.69319 0.20305 -0.086746 -0.16511 0.27673 0.63914 -0.78488 -0.24268 0.19349 -0.95592 0.67444 0.61131 0.093666 -0.59761 1.0487 -0.11651 0.28072 -0.39879 0.25172 0.36542 -0.45252 1.8329 0.22728 0.0099581 -0.22539 -0.60941
foundation 0.36051 1.4642 -0.29921 0.17321 0.13852 0.39964 -0.83854 -1.1056 1.1621 -0.016462 0.12081 0.4102 -0.23413 -0.37717 -0.44522 -0.22407 0.55973 0.32591 0.56052 0.71846 0.30521 0.43469 -0.69603 -1.2985 -0.14116 -1.0665 -0.58821 -0.86425 -1.531 -0.57257 2.3306 -0.092297 -0.42012 -0.52581 -1.3215 -0.14791 0.016137 0.46637 1.1939 -0.29718 0.15453 -0.89187 -0.214 -0.056861 0.055158 0.036573 -0.89976 -0.51775 -0.80763 0.056165
student -1.0729 0.94103 0.084904 -1.0766 0.42866 0.099877 -0.51081 -0.24961 -0.30883 0.19553 0.1965 -0.73152 0.096916 -0.062686 0.12078 -0.72384 -0.382 0.6934 0.32956 0.40244 0.53485 0.91781 -0.44553 0.71804 -0.13635 -1.6906 0.15818 -1.2367 -1.2278 -0.058566 2.7544 0.18672 -0.263 -1.2792 0.16992 0.40748 0.12248 0.11211 0.78318 0.036392 -0.40808 -0.058474 -0.27932 0.33035 0.52384 -1.0487 0.27565 0.0363 0.048604 0.28239
from 0.41037 0.11342 0.051524 -0.53833 -0.12913 0.22247 -0.9494 -0.18963 -0.36623 -0.067011 0.19356 -0.33044 0.11615 -0.58585 0.36106 0.12555 -0.3581 -0.023201 -1.2319 0.23383 0.71256 0.14824 0.50874 -0.12313 -0.20353 -1.82 0.22291 0.020291 -0.081743 -0.27481 3.7343 -0.01874 -0.084522 -0.30364 0.27959 0.043328 -0.24621 0.015373 0.49751 0.15108 -0.01619 0.40132 0.23067 -0.10743 -0.36625 -0.051135 0.041474 -0.36064 -0.19616 -0.81066
area 0.87797 0.20571 -0.12058 -0.010709 -0.053455 -0.68496 -1.2214 -0.32873 0.57296 -1.1168 -0.12084 -1.3698 0.58411 -0.94934 -0.7575 0.61905 0.85446 0.29599 -0.91012 0.41647 -0.18308 -0.099543 -0.34984 0.6359 -0.35521 -0.93343 -0.044097 0.71133 0.43015 -0.3832 3.7452 -0.42756 0.42294 -0.93751 0.47626 0.42313 -0.10811 -0.01229 0.30669 1.0182 -0.48771 0.25101 0.36161 -0.089203 -0.56762 -0.1957 -0.22157 -0.49112 0.15444 -0.44166
provided 0.52014 0.38829 0.11381 -0.095386 0.068108 0.097393 -0.76423 -0.074335 0.57425 -0.15391 -0.039255 0.2849 0.33124 -0.38627 -0.14163 -0.23956 -0.21116 -0.090305 0.18066 -0.50338 0.59891 0.19354 -0.012534 -0.44503 -0.16047 -0.8678 -0.072748 -0.34815 -0.053666 0.0037205 3.212 -0.24305 -0.0017586 -0.73027 0.64888 0.62735 0.45945 0.24528 -0.3262 -0.10301 0.7031 -0.017958 0.080254 0.0027417 -0.47416 -0.20116 -0.30988 0.84034 -0.029246 0.18248
based 0.44515 0.14297 -0.31849 0.93227 0.15758 0.10426 -0.86868 -1.0764 0.55314 0.30039 0.50631 0.014296 -0.31297 -0.28746 -0.57734 0.033763 -0.22912 0.45513 -0.57208 0.12396 0.76135 0.20192 -0.31061 0.27998 -1.039 -1.6102 -0.96987 -0.50075 -0.68246 -0.13174 3.2179 -0.80151 -0.12665 -0.67749 0.35736 -0.91313 -0.55365 -0.070563 0.20915 0.11336 0.66136 -0.087329 0.41196 -0.080373 -0.061894 0.38201 -0.21459 0.86345 -0.11521 0.54568
bursary -0.52364 0.52202 -0.58018 -0.70933 -0.55415 0.251 -0.043659 -0.49614 0.57986 0.27106 -0.1526 0.2432 0.89171 -0.50904 -0.16834 -0.29386 1.2078 0.40841 -0.20506 0.18539 1.2166 -0.13346 -1.1444 -0.56928 -0.11665 0.36501 0.40986 -0.90405 -1.153 -0.2315 -0.68982 0.50472 -0.81762 -0.27481 0.20348 0.56394 0.52046 -0.088261 0.19184 -0.81529 0.44043 -0.45047 -0.36752 0.1686 -0.53331 -1.2183 0.44159 0.57123 0.51207 -0.035497
burnaby -0.63554 0.77034 -0.0040838 0.099835 -1.0426 0.4762 -0.61927 0.26443 0.34656 -0.7589 0.039084 -0.14475 0.51951 -0.22319 -1.089 1.3839 0.98903 0.80845 -1.4438 0.65689 0.93388 0.30796 -0.48371 0.9145 0.061165 -0.16104 -0.62066 -0.11315 -0.53535 -0.16463 -1.1526 -0.26367 0.62008 -1.0724 0.91686 -0.18958 0.039631 -0.81432 0.62968 0.28897 -0.079375 -0.1666 0.1946 0.11437 -0.92962 1.1637 0.092135 -0.31844 0.33887 -0.62603
bursaries -0.27609 0.40227 0.68992 -0.061797 -0.47964 0.12397 -0.80305 -0.85244 1.3923 0.24009 -0.51036 0.41757 1.6944 -1.5144 -0.62768 -0.26742 1.105 0.08932 0.61848 -0.34452 1.0205 0.29513 0.098769 0.1063 0.29585 1.1896 0.48774 -1.6603 -1.1863 -1.1547 -0.10772 0.83284 -0.46452 -0.19737 1.1062 1.0777 -0.32956 -0.65771 -0.62594 -0.55158 0.78314 -0.55117 -0.12458 1.0051 -0.011098 -1.0146 0.41451 0.90749 0.22014 -1.3005
within 0.43545 0.17045 0.02835 0.19479 0.80862 0.43448 0.40041 0.26019 0.5388 -0.70532 0.074757 -0.81232 -0.018386 -0.32536 -0.32477 0.56547 0.56943 -0.21274 -0.27345 -0.066153 -0.045741 -0.29294 0.27252 0.51855 -0.21129 -1.092 0.33047 0.068431 0.1474 0.020561 3.7828 -0.37415 0.027395 -1.1671 -0.32384 -0.21048 -0.26656 0.014331 -0.03405 0.10754 -0.16645 -0.53375 0.13492 0.70171 -1.1395 0.59742 0.037514 -0.10763 -0.60251 -0.61549
offered 0.66292 0.85427 0.057809 -0.17591 0.34043 0.11889 -0.97766 -0.090247 -0.41958 0.32051 -0.44901 0.25626 0.45011 -0.55267 0.33366 0.007 -0.41202 0.028535 0.26963 -0.69667 0.61497 0.51702 -0.18442 -0.4499 -0.26029 -1.1843 0.15492 -0.23104 -0.41654 -0.087132 2.8575 0.44175 -0.58492 0.081696 0.77519 -0.14075 0.047402 0.25958 -0.38696 -0.52593 0.57771 0.33231 -0.092007 0.15966 -0.036843 -0.24865 -0.41922 1.0344 -0.3138 0.316
richmond -0.62883 0.49342 -0.29822 0.17423 -0.22431 -0.24875 -1.0946 0.51042 -0.15711 -0.94766 -0.44893 -0.08817 -0.49721 -1.1282 -0.72862 0.0025179 0.20169 0.21978 -1.3139 0.085797 0.45157 0.12475 -0.4699 0.41001 -0.66938 -0.84672 0.33298 -0.14264 -0.029348 -0.55668 0.90251 -0.40435 0.5269 -0.87551 0.83842 -0.57933 0.18489 -0.15928 0.4865 -0.029714 -0.2296 -0.4128 0.027376 -0.0028989 -0.69106 0.71451 -0.41817 -0.77047 -0.025837 0.50786
science -0.60334 1.0577 -0.30452 0.056728 0.00062269 -0.15874 -0.39343 -1.6816 0.25751 0.096477 0.22256 0.40022 -0.13319 0.50095 -0.31653 -0.13437 0.36205 1.1403 -0.46058 0.78453 1.1051 0.67427 0.33348 -0.19985 0.8804 -1.5153 -1.0876 -0.97803 -1.0249 -0.08135 2.6487 -0.47125 -0.45275 -2.0287 -0.4091 0.26637 -0.66804 1.1231 0.89049 0.20298 -0.024961 -0.46865 0.25623 0.37514 -0.12434 0.72878 0.90596 0.83551 0.00022837 0.44761
fair -0.57333 0.21002 -1.2588 0.31335 0.65865 -0.70237 -0.068318 -0.18789 0.73057 0.28877 -0.38673 -0.42082 0.17019 -0.6401 0.73984 0.27364 0.72482 0.011167 0.2587 -0.6711 1.0301 0.1852 -0.28138 0.14767 0.066682 -1.2177 -0.57737 0.19359 0.26741 -0.35245 2.512 -0.011822 -0.69252 -0.76359 -0.30085 -0.69783 0.40652 0.6768 -0.22987 -0.49352 -0.31212 -0.45142 0.1914 0.0819 -0.30996 0.058601 -0.64492 0.12647 0.85066 0.69163
stem 1.0017 0.14679 0.64115 -0.61337 -0.33945 1.7637 0.6349 -0.64382 0.51547 0.55989 -0.13274 -0.057141 0.69158 -0.071349 -0.27334 0.50509 0.14252 -0.57414 0.55959 0.39665 -0.20274 -1.418 0.59701 -0.67984 -0.24693 -1.444 0.88559 -0.023635 -0.19144 -0.066942 2.5542 -0.58812 -0.283 -0.8104 -0.60292 -0.061574 -0.86799 -0.026853 0.26589 -0.74088 -0.58071 -0.37937 -0.24149 0.51709 1.258 -0.41824 1.1053 0.19838 -0.62971 -0.64849
1218 0.64174 -0.46668 -0.11118 -0.59929 -0.541 -0.19044 0.59994 0.32759 -0.44424 -0.31898 -0.030399 0.10922 0.15506 -0.94167 0.25155 -0.045834 -1.215 0.077991 -0.53282 0.87636 0.29408 -0.5769 0.41505 0.078603 0.66793 0.51388 0.2896 -0.67673 0.39061 0.69886 -0.83805 -0.38142 -0.63901 0.46667 0.20297 -0.18108 0.45689 0.42357 -0.037872 0.84453 0.50448 -0.41631 -0.31965 -0.02518 -0.70024 0.97706 0.5983 -0.57119 -0.32614 -0.13689
712 0.78274 -0.47241 0.87842 -0.13066 0.33502 -0.16123 0.46811 -0.58438 -0.1219 -0.20991 -0.7885 -0.52391 0.58642 -1.0508 0.11117 -0.55574 -1.1778 0.23815 -0.21873 0.97434 -0.067987 -0.3036 0.28336 -0.50533 0.26168 0.88835 0.077953 -0.47056 -0.19586 -0.24573 -0.21505 0.23462 0.80713 1.2806 0.33769 -0.37029 0.63821 -0.24069 -0.49923 0.38296 -0.16614 -0.49382 0.50174 0.22531 -0.88059 0.4903 -0.39804 0.10939 -0.23561 -0.10316
canada -0.72491 0.40524 -0.35895 0.65977 -0.27592 0.60496 -1.217 0.14638 0.85096 -0.74799 1.0267 -0.0491 0.40083 -0.11647 0.14594 0.32253 0.38807 -0.72773 -1.0039 -0.015682 0.66613 -0.30068 -0.01085 0.57758 -0.26283 -1.3647 0.17607 -0.54651 -0.40292 -0.14113 2.3757 0.60026 0.072329 -0.4139 -0.30918 -1.166 -0.15287 -0.18237 -0.075067 -0.30076 -0.073329 -0.19173 1.1995 -1.1107 -0.57754 1.011 -0.81894 -0.11035 0.015073 -0.03693
participants 0.56137 0.56965 0.020701 -0.3017 0.49968 -0.50757 -0.12253 -0.2404 -0.23802 0.022032 -0.080223 -0.7202 0.47759 -0.016491 0.74194 -0.2747 0.10855 -0.057456 -0.15396 -1.0432 0.62484 0.3599 0.6507 0.15191 0.09175 -0.33187 0.0049967 -0.62722 -1.0359 -0.043189 2.7202 1.1652 -0.41156 -0.93758 -0.17267 -0.606 0.14608 0.12637 -0.59969 -0.057365 -0.50314 -0.60736 0.32146 0.52814 0.78104 -0.49534 -0.073903 0.67697 -0.46109 -0.0027638
future 0.63042 0.75208 0.11595 0.053805 0.22323 -0.072581 -0.48426 -0.0037095 -0.10206 -0.056203 0.10211 0.77389 -0.70469 0.14279 0.61167 0.71663 0.63076 -0.24559 0.36545 -0.31258 0.073881 -0.35344 -0.5483 -0.20543 0.30826 -1.4148 -0.57064 -0.5875 0.33996 0.56309 3.0997 0.51138 -0.52654 -0.99515 0.07279 -0.17809 -0.38751 0.004608 -0.66972 -0.60616 -0.78847 -0.31892 0.098271 -0.13066 -0.17643 0.27083 -0.13982 0.5409 -0.11725 0.35303
pursuits -0.67559 0.63277 -1.5543 -0.47924 -0.035847 -0.16602 -0.24248 0.025739 0.31962 0.29437 -0.39682 0.094505 0.11484 -0.26119 -0.59843 -0.57671 0.47791 0.97465 -0.24058 0.032753 1.3875 0.74492 0.23978 0.24808 0.019328 -0.1391 0.11504 -0.84157 1.5096 1.2903 0.82673 0.27736 0.050686 -0.97877 0.19412 0.33931 -1.3003 1.3801 -0.65398 0.93103 -0.227 -0.99945 0.18143 1.5621 0.1157 -0.58354 -0.34471 -0.26004 -0.16031 0.23362
td -1.7105 0.12495 1.0297 0.58984 -0.28337 0.13222 -0.78818 -0.68317 -0.36741 -0.1838 -1.3461 1.01 -0.90723 -0.80319 -0.91317 -0.46659 1.0134 -0.65694 -1.3636 0.53083 0.64522 -0.96635 0.38249 0.2095 -0.31228 -0.081018 0.93157 -1.0174 0.17365 -0.16549 1.106 0.56397 -0.40257 1.7515 1.2739 0.44048 0.21856 -0.49033 1.1467 0.3593 0.85374 0.49905 -1.9768 0.71413 -1.239 0.29865 0.5306 0.53441 1.9104 -0.24405
bank 0.66488 -0.11391 0.67844 0.17951 0.6828 -0.47787 -0.30761 0.17489 -0.70512 -0.55022 0.1514 0.10214 -0.45063 -0.33069 0.056133 1.2271 0.55607 -0.68297 0.037364 0.70266 1.9093 -0.61483 -0.83329 -0.3023 -1.1118 -1.55 0.2604 0.22957 -1.0375 -0.31789 3.5091 -0.25871 1.0151 0.65927 -0.18231 -0.75859 -0.30927 -0.91678 1.0633 -0.66761 -0.37464 -0.29143 0.65606 -0.44642 -0.075495 -1.0552 -0.60501 0.73582 1.0139 -0.27749
group 0.74048 -0.1201 0.039916 0.77326 0.80822 0.32251 -0.77215 -0.35964 0.052412 0.088437 0.81699 -0.43037 -0.83637 0.44307 -0.76235 -0.46153 0.51897 0.010496 -0.66992 -0.15137 0.34948 0.45595 0.18992 0.54493 -1.4771 -1.1608 -0.74422 -0.86467 -1.278 -0.064544 3.6217 0.056087 -0.29725 -0.081222 -0.32781 -1.0023 -0.47127 -0.8349 0.027287 -0.096889 0.21902 -0.74387 0.12332 -0.40643 1.0687 -0.19225 -1.1237 0.076487 -0.28012 -0.051703
canadian -1.3156 0.32637 -0.26136 0.2245 0.1606 0.54859 -1.4823 0.11134 0.56203 -0.73024 1.0907 0.14896 0.5381 0.70565 0.059538 -0.26862 0.39618 -0.047937 -1.1397 -0.3358 0.847 0.2914 -0.39779 0.31489 -0.58002 -1.3253 -0.47449 -0.8454 -0.60191 0.64494 2.0943 -0.34479 0.0082923 -0.15634 0.20007 -0.44347 -0.17446 -0.47847 -0.096943 -0.41283 0.29901 0.25059 1.1155 -0.95187 -0.09604 0.018788 -0.92339 0.2649 -0.021092 0.02992
outstanding -0.98019 1.0182 -0.44169 0.11206 0.86428 0.29958 -0.15431 -0.10011 0.18546 0.47447 0.066039 0.57883 0.047658 0.12459 0.43711 -1.0153 0.54596 0.39057 -0.18711 -0.35684 0.45284 0.36914 -0.3733 -0.77925 -0.022 -0.58147 -0.42657 -0.97868 -0.85833 -0.039492 2.5476 0.47342 0.56642 -0.51884 0.84737 0.56476 -0.10775 0.30505 -0.49982 -0.92398 -0.28242 -0.056582 0.242 -0.13997 -1.2648 -0.4765 -0.082586 1.2503 -0.41384 0.25392
show -0.034772 0.64145 -0.37352 0.20804 0.20488 0.10238 -0.90995 -0.57641 0.01479 0.45589 -0.15513 -0.18886 -0.44949 0.39482 1.1552 0.15602 -0.071006 0.056749 -0.66921 -0.43072 0.78598 0.67878 0.54741 0.23433 0.18783 -1.1221 -1.3257 0.45237 0.069194 -0.47916 3.0153 0.8077 0.097056 -1.065 -0.49647 0.051322 0.38649 -0.25782 -0.76952 -0.70461 -0.15052 0.36085 -0.97656 -0.58116 0.081565 -0.41565 -0.16104 -0.23396 -0.28784 0.98359
exemplary -0.72933 0.10365 -1.1239 -0.62659 0.70723 -0.0077019 1.0461 -0.075918 0.68017 0.648 0.12366 0.048829 0.30591 -0.41034 -0.13662 -1.3082 0.14669 0.7384 0.57465 -0.14905 -0.51298 0.61206 -0.65567 -0.57317 0.12916 -0.51023 -0.83236 -0.50545 -0.18834 0.15371 0.95028 0.4866 0.27676 -0.88237 0.21342 0.47955 0.53675 0.32302 -0.90496 -0.42975 -0.26936 -0.63044 0.31868 0.23614 -0.28604 -0.69145 -0.53752 0.74577 0.2255 0.73418
success -0.09365 0.52359 -0.25771 -0.070594 -0.024704 0.15472 -0.71638 0.19921 0.37337 1.07 0.18652 0.14885 -0.90904 -0.29839 0.26002 -0.1573 0.62769 -0.054288 -0.45904 -0.11208 -0.038781 -0.01349 -0.029441 -0.29288 0.48665 -1.1699 -1.2364 -0.50309 0.28261 0.36255 3.0535 0.75565 0.058124 -0.6127 0.11773 -0.24694 -0.22847 0.58849 -0.78022 -0.95572 -0.46784 -0.54124 -0.67443 -0.50789 -0.2992 0.034926 -0.21086 0.28679 -0.099461 0.16039
schulich -1.0962 0.35566 -0.54917 -0.37486 0.66354 -0.0068076 -0.6804 -0.50444 0.32785 -0.56714 0.24285 -0.24559 0.033486 -1.0252 -0.87462 0.68212 -0.60451 0.46447 0.41924 0.58546 1.0126 -0.37702 -2.3059 0.38279 -0.84334 0.096882 -0.68524 -0.65831 -0.13359 -1.0671 -1.1834 0.53198 1.0298 -0.44603 0.68376 -0.16548 -0.50369 -0.42503 0.7877 0.43898 0.045795 -0.31504 -0.70316 0.1414 -0.66557 0.47129 1.1301 -0.052568 -1.0103 0.65064
leader -0.1567 0.26117 0.78881 0.65207 1.2002 0.35401 -0.34298 0.31702 -1.1502 -0.16099 0.15798 -0.53502 -1.3468 0.51783 -0.46441 -0.19846 0.27475 -0.26154 0.25531 0.33388 -1.0413 0.52525 -0.35443 -0.19137 -0.08964 -2.3314 0.12433 -0.94405 -1.0233 1.3507 2.5524 -0.16897 -1.729 0.32548 -0.30914 -0.63057 -0.22211 -0.15589 -0.43598 0.0568 -0.090885 0.75028 -1.3153 -0.75359 0.82899 0.051397 -1.4805 -0.11134 0.2709 -0.48713
postsecondary -0.40069 0.10607 -0.30875 -0.45021 -0.30942 -0.80964 -0.053545 -0.39363 1.1352 -0.13477 -0.24134 0.14795 1.2495 -0.36476 -1.3554 -0.74829 -0.51619 0.77444 1.865 0.65822 0.73249 0.27746 -0.82759 0.17552 -0.2438 0.28381 0.67995 -1.195 -1.4704 -0.36967 0.81826 0.67617 0.31461 -1.1063 0.51844 -0.037939 -0.1924 0.35358 0.67042 -0.4025 -0.89428 -1.1543 0.44886 1.1538 -1.7165 -0.55269 0.022993 0.80584 0.74683 1.0322
fields -0.049248 0.82511 -0.19582 0.81901 0.00031325 -0.13859 -0.76624 -0.67666 0.37608 -0.36224 0.12577 -0.069912 0.18657 -0.78896 -0.27854 0.48051 1.2629 0.84814 0.033708 -0.62198 0.45202 -0.01586 0.68505 -0.44175 -0.016008 -0.23721 0.27286 -0.013664 0.59241 -0.085508 2.9329 -0.44333 -0.18095 -0.92893 0.27097 0.79619 -1.4317 1.0224 0.5016 0.90218 -0.40485 -0.1193 0.06886 0.26853 0.43512 -0.14177 0.1165 -0.19586 -0.79638 -0.73847
universities -0.65503 0.55213 -0.28144 -1.1076 -0.80285 -0.50289 -0.45263 -0.56634 -0.40766 0.065814 0.24498 -0.41909 0.55292 -0.344 -0.62249 0.07158 0.22541 0.41833 0.31944 0.50634 1.0239 0.013704 0.10401 0.77249 -0.76463 -1.3106 0.063183 -1.4039 -2.0123 -0.60715 2.6931 0.98837 0.29281 -1.3761 0.18759 0.022284 -0.37363 1.0417 0.062304 0.3041 -0.39769 -0.60826 1.1272 1.1857 -0.25953 0.2388 -0.3045 0.75516 -0.68009 -0.57788
vancouver -0.59377 0.85035 -0.42334 0.89367 -0.35569 -0.058967 -1.5609 0.24526 -0.01059 -0.28004 0.42032 -0.43117 -0.038007 0.59378 0.056968 -0.086136 0.3379 -0.045267 -1.8881 0.48482 0.49234 0.026385 -0.28483 0.4826 -0.20701 -0.66128 0.5448 -0.042222 -0.062233 -1.0989 1.0046 1.0135 0.20599 -0.89925 0.030901 -0.45016 0.31402 0.14873 0.57346 0.60879 -0.72704 -0.18684 0.39869 -0.40506 -0.72894 0.70125 -0.48879 -0.14742 0.49093 0.19525
indigenous -0.34717 -0.45924 -1.0186 0.6957 0.30313 0.52292 -0.75119 -0.81749 -0.27637 0.36961 1.1115 -0.33125 2.004 -0.58458 -0.35985 -0.4434 0.55822 0.19639 0.26787 -0.078106 -1.3073 0.30962 -0.06409 -0.11333 0.74912 -0.041404 -0.25137 -1.4145 -0.35952 0.16276 2.6988 -0.24955 -0.78989 -0.46173 -0.21286 0.17805 -0.98873 -0.6637 -0.74019 0.65223 -0.68592 -0.17562 0.63824 0.18927 0.24884 0.30767 -1.0007 0.2163 -0.38666 -1.2406
learning 0.20461 0.48659 -0.55308 -0.27019 0.26336 0.15751 -0.28994 -0.51824 0.051829 0.36225 0.37077 0.1322 -0.061377 -0.53606 -0.34733 -0.043981 -0.086744 0.78305 0.41422 0.027996 0.23433 0.98844 -0.41049 0.6206 1.3966 -0.65427 -0.18221 -1.0293 -0.014741 -0.25384 3.227 0.39509 -0.33042 -1.229 0.29048 0.33654 -0.24817 0.47105 0.32964 0.23997 0.088302 -0.91779 -0.36671 0.9926 0.2185 -0.316 1.203 0.2699 -0.14093 0.70785
services 0.64004 0.27029 0.26208 0.15573 -0.31636 -0.085634 -1.1548 -0.51424 1.2036 -0.83512 0.48004 0.40719 0.056176 -0.41852 -0.7217 0.14392 -1.1009 0.26455 0.6003 -0.013637 1.6695 0.12136 -0.77214 0.49072 -0.60833 -1.0132 0.49926 -1.015 -0.14751 0.41612 3.7691 0.76037 0.42838 -0.63489 -0.054498 0.14418 0.094942 -0.11031 0.33915 0.54325 0.6401 -0.31586 0.049959 0.43183 -0.19109 -0.19309 -0.60553 0.4603 0.3726 0.87739
enrolled -0.57645 0.35336 0.21972 -1.8166 -0.043064 -0.044415 -0.97276 -0.0087733 -0.44432 -0.33457 0.55231 -0.53042 0.81437 -0.70031 0.35136 -0.33051 -0.54346 0.89724 0.20542 0.5333 0.1929 0.46702 0.2905 0.47411 -0.22338 -0.81149 0.25501 -1.4455 -1.382 -0.45834 1.3847 0.37301 -0.11637 -1.0301 1.0445 -0.062883 0.13792 0.90673 0.82623 -0.11191 -0.79343 -0.45037 0.59956 0.60114 -0.83225 -0.7439 0.29499 -0.33343 -1.0624 0.69288
beedie -0.31701 -0.60712 -0.1097 -0.53254 -0.17867 0.39634 -0.55819 0.43364 0.52967 -0.065721 -0.40066 -0.10727 0.023952 -0.1251 -0.87105 -0.19403 -0.5334 0.20676 1.2558 0.28431 0.089523 0.11191 -0.75377 0.58229 -0.24176 1.0059 0.47276 -0.16267 -0.038769 0.14868 -1.5236 -0.25679 0.8121 0.18089 0.89387 0.26233 -0.39334 -0.12953 -0.26337 0.024427 -0.47758 -0.72858 -0.71313 0.58839 0.24363 -0.30852 0.3221 0.27122 -0.11734 0.27234
luminaries -0.29682 0.91486 -0.12039 0.013477 -0.40611 -0.22342 -0.76677 -0.35437 -0.87034 0.40934 -0.83999 0.22152 0.26563 1.0389 -0.18897 -0.56913 0.46428 -0.0017584 0.33363 -0.78996 0.38244 0.27941 -0.036092 0.27735 -0.18033 0.23778 -0.75829 -0.89076 -1.1276 0.2413 0.15714 0.46591 0.1065 -0.75152 -0.18196 0.31473 -0.87796 0.15655 -0.77987 0.21737 -0.15437 1.0247 -0.40592 0.38999 0.51481 0.51312 -0.67851 -0.50936 -1.1471 -0.30925
1724 0.36077 0.048268 -0.55413 -1.1096 -0.35653 0.17895 0.15624 0.093789 -1.2643 0.090074 0.046574 0.041415 0.31062 -0.67166 0.20637 -0.16325 -1.348 -0.14264 -0.73669 1.2062 0.89464 -0.45586 0.61261 -0.027439 0.29789 0.68674 0.13587 -0.69127 -0.013891 0.8179 -0.18944 -1.1755 -0.57394 0.38517 0.55697 -0.36529 0.62176 0.45533 0.38928 0.74933 0.3357 -0.66152 -0.5475 -0.42369 -0.73399 0.7931 0.51072 -0.90279 -0.23897 -0.27749
grade -0.82569 1.5112 0.40125 -1.103 0.50461 -0.07905 0.11374 -0.17976 0.42595 0.033796 -0.17273 -0.053486 0.22222 -0.62024 0.21586 -0.023054 -0.10582 0.77085 -0.10615 0.05269 0.33575 -0.73274 0.36026 0.3988 -0.29 -0.94998 -0.126 -0.27329 -0.16198 -0.15585 2.6199 -0.53168 0.38095 -0.22282 2.0664 0.44297 0.79217 0.74435 0.55286 -0.78864 -0.4808 -1.0605 0.34927 -0.065558 0.18524 0.08784 1.1872 -0.087231 0.098389 0.44996
supports 0.049732 0.36165 0.32818 0.12511 0.081711 0.75872 -0.050582 -1.1166 0.58227 0.21314 0.15064 -0.22688 0.47179 -0.13377 -0.69312 0.18218 0.5644 0.075405 1.4233 0.060163 -0.43852 -0.15297 -0.76038 -0.011172 0.12466 -1.2022 0.92365 -0.15467 -0.49868 -0.12346 2.5609 -0.25018 -1.0083 -0.56523 -0.64124 -0.29998 0.12372 -0.098441 -1.0259 -0.41178 0.45256 -0.05498 -0.11532 -0.15173 -0.10357 0.14907 -0.33489 0.51044 -0.24129 0.33339
barriers -0.74825 0.085368 0.35278 0.14669 -0.58031 0.68684 0.52167 -0.67364 0.36424 -0.4738 0.071799 -0.60451 -0.35514 0.29249 -0.27563 0.74805 0.86899 -0.73365 0.95525 -1.3339 0.4661 -0.56315 -1.3787 -0.58463 0.15368 -0.51274 0.74068 0.34684 1.2071 -0.43307 2.5118 0.63312 0.13606 -0.57717 -1.0872 0.54222 0.17793 -0.094332 -0.57819 0.71228 -0.63818 -0.50754 1.4272 0.47818 0.54996 -0.41439 0.036732 -0.16548 -0.040881 -1.1442
pursue 0.16784 -0.14628 -0.54448 -0.39932 -0.012138 0.10565 -0.051204 0.511 -0.08466 0.56544 0.10231 0.61633 -0.74713 -0.087051 -0.26069 0.086467 0.82291 0.12371 0.68499 0.010556 0.89533 0.70407 -0.17872 -0.10701 -0.23883 -1.6726 0.37621 -1.111 0.14308 -0.38345 2.2225 0.30246 -1.4239 -1.1638 0.24315 -0.35152 -0.82583 0.16615 -0.47416 -0.53754 -0.57228 -0.96705 0.24451 0.14986 0.017301 -0.76834 0.14324 0.65529 -0.42605 0.3769
realize 0.53393 -0.020544 0.26587 -0.42026 0.72356 -0.14408 -0.090603 0.27786 -0.17929 0.50162 0.091515 0.52241 -0.57619 -0.26197 0.45548 0.57307 0.93092 0.25189 0.63925 -0.29792 -0.20912 0.55594 -0.13 -0.03429 1.3484 -1.131 -0.84768 -0.43039 1.0147 -0.60392 2.2336 1.271 -0.45462 -0.54485 -0.29686 -0.46433 -0.47675 0.056601 0.032839 -0.30257 -0.96488 -0.80295 0.15865 0.10785 -1.1747e-06 -0.075234 0.18336 0.39547 -0.060159 0.49132
potential 1.0854 0.46105 0.95126 0.66969 0.23887 0.63287 0.13193 0.40627 0.785 0.561 -0.16928 0.17459 -0.11582 0.13849 0.45131 0.19626 0.91895 -0.37151 -0.43067 -0.9198 0.1845 -0.91836 -0.2407 -0.13197 0.012796 -1.5147 -0.25986 -0.5703 0.50268 0.46816 2.8876 0.74687 0.18387 -1.644 0.17951 0.11324 -0.5668 -0.14583 -0.38784 -0.71582 -0.47079 0.17619 0.057986 0.59048 0.45949 -0.2742 -0.050923 1.0087 0.14522 0.13566
black -0.96256 0.65329 -0.55152 -0.41065 0.80223 0.9833 -0.96007 -1.029 -0.47013 -0.6812 0.071232 -0.25591 0.60577 0.29845 -0.1837 -0.26064 -0.038707 0.11412 -0.72028 -1.2694 -0.73858 0.3357 0.44293 0.02566 -0.97692 -1.6867 -0.88665 0.75824 0.18836 -0.6932 2.6144 0.11718 -0.45564 -0.42953 -0.052095 0.11656 -0.66685 -0.86056 -0.093886 -0.74592 -0.062858 0.54547 0.28987 -0.26887 0.71881 -0.074307 -0.18512 -1.2621 -0.3246 -0.56563
business 0.023693 0.13316 0.023131 0.49833 0.026874 -0.43252 -1.1364 -0.82001 0.22388 -0.032119 -0.069651 0.39857 -0.58275 0.095008 -0.023643 0.23237 -0.42441 0.65709 0.57802 -0.51602 1.8253 0.12951 -0.61773 0.39281 -0.35754 -1.6778 -0.45201 -0.47075 0.19487 0.35828 3.6034 0.32865 0.47288 -0.33787 -0.46234 -0.51628 -1.3755 0.70789 0.4648 -0.16186 -0.0961 -0.28523 0.30047 0.50902 0.081356 -0.015639 -0.51021 0.34585 0.24201 0.82237
professional -1.5058 0.59432 -0.94774 0.25047 -0.35738 -0.01501 -1.0501 0.5317 -0.36641 0.13518 1.1652 0.33063 -0.353 0.65077 0.39183 -1.0234 0.23005 1.2031 -0.62526 -0.46444 -0.069124 0.66144 -0.26636 0.86185 -0.61669 -1.1649 -0.3904 -1.3234 -0.5373 0.30509 2.901 0.44642 -0.17958 -0.98022 0.44397 0.79638 -0.1815 0.57759 0.045171 -0.91778 0.17393 -0.63065 0.24852 0.71628 -0.13022 -0.60415 -0.2412 0.40821 -0.11908 0.36694
association -1.4406 0.58249 -1.2903 0.64414 -0.38313 -0.4135 -1.2314 -0.34478 0.76907 -0.92177 1.0592 0.35802 0.3303 0.11928 0.075642 -0.26642 0.026377 0.64826 -0.19121 -0.48528 0.18678 -0.15363 -0.41788 0.33233 -0.87561 -1.4564 -0.43698 -1.0328 -1.728 0.06726 2.888 0.21731 -0.36207 -0.52641 -0.45183 -0.30496 0.034511 -0.49968 0.66999 0.18588 -0.45591 -0.30164 0.16987 0.6089 0.55034 0.046437 -0.99937 0.61423 -0.18125 0.11436
national -1.1105 0.94945 -0.17078 0.93037 -0.2477 -0.70633 -0.8649 -0.56118 0.73209 -1.021 0.33214 -0.41628 0.069921 0.19263 -0.22606 -0.2683 0.35184 0.372 -0.30553 0.037727 -0.22194 -0.14806 -0.14505 -0.46135 -0.58815 -1.6456 -0.65582 -0.44527 -1.4315 0.32433 3.4448 0.47302 -1.0024 -1.1375 -0.68221 0.027411 0.048669 -0.30637 0.29609 -0.16658 -0.72832 -0.20543 -0.16442 -0.20362 -0.44329 0.3599 -0.98501 0.472 0.45736 -0.35001
1730 0.52873 0.31232 -0.40783 -0.4688 -0.075629 -0.47452 -0.030157 0.42019 -1.821 -1.0293 -0.42429 -0.19602 0.3668 -0.43101 0.65679 0.29563 -1.4296 -0.027248 -1.0766 0.72528 0.99052 -0.13178 0.50037 0.47067 0.64903 0.68568 0.55905 -0.42097 0.55757 1.1283 0.22908 -0.97269 -0.59413 0.23668 0.11328 -0.29931 0.47688 0.22764 0.55269 0.85866 0.68135 -0.50892 -0.27102 0.089969 -0.47802 0.97214 0.5054 -0.90342 0.23855 0.042295
greater 0.10768 0.91082 -0.12185 -0.3765 0.31017 0.092112 0.81855 -0.026777 0.78575 0.51874 0.49918 -0.30915 0.39335 -1.2969 -0.90529 0.49545 0.74978 0.05962 -0.2233 -0.33034 0.0222 -0.38098 -0.48946 -0.26045 -0.21087 -1.4353 -0.18188 -0.17174 0.30901 0.1952 3.2316 1.3341 0.21517 -1.2965 -0.070717 -0.76545 -0.51567 -0.45832 -0.030049 0.13768 -0.39462 0.070163 0.14618 -0.14372 -0.80835 0.29136 -0.12947 0.48711 -0.30308 0.11632
region 0.98452 0.2065 -0.45484 0.41243 -0.51275 -0.65114 -0.0045446 0.29699 0.29081 -0.89075 0.70736 -1.0688 0.5047 -0.80462 -0.4343 0.6821 0.74345 0.13158 -0.036651 0.92608 -0.63787 -0.77018 0.48003 0.71657 -0.22072 -1.2746 -0.79227 0.44243 0.073341 0.56563 3.8287 0.37451 0.1551 -0.48574 0.090775 0.076599 -1.5697 -0.073767 -0.29915 0.73623 -0.95512 0.69192 0.93496 -1.6182 -0.59864 0.34227 -0.099338 0.5234 -0.32414 -0.81083
funds 1.0326 -0.20667 1.0488 -0.81196 0.319 -0.13725 -0.43444 -0.66992 0.39683 0.2916 -0.48133 0.89998 0.43846 -0.65305 0.14075 0.071803 0.66809 -0.066865 0.55279 0.29155 1.5177 -0.82919 0.43462 -0.81852 -1.202 -1.2705 0.6358 -0.57201 -0.376 -0.032512 3.3621 0.65152 0.31131 -0.4339 -0.3911 0.17161 -0.85143 -0.018488 0.67367 -1.0877 -0.44121 -0.54815 0.39005 0.63994 -0.6387 -1.1202 -0.80442 0.72396 0.42522 0.20705
merit -0.82623 0.70906 -0.81708 0.13462 0.75321 0.33919 0.8636 0.082965 0.20281 -0.27515 0.22989 0.22338 0.13397 -1.1887 0.44702 -0.55137 0.35646 0.44861 -0.26489 -0.93578 -0.020192 -0.06346 -0.44002 -0.97104 -0.011795 -0.9008 -1.1589 -0.77142 -1.1224 -0.14775 1.4256 0.41299 -0.27059 -0.66682 0.2664 0.022396 0.37598 0.39351 -0.50766 -1.2608 0.34908 -0.76597 0.41521 0.59063 -0.91279 -0.53194 -0.035285 1.0604 0.15811 -0.097193
shad -0.56253 -0.47319 -1.2155 -0.18928 -0.68959 0.59845 -0.52458 -0.24971 1.1966 0.15085 0.010163 0.88029 0.54923 0.018455 -0.47212 0.38952 1.4615 0.17013 -0.46161 0.26632 -0.15995 -0.073685 0.76331 -0.0091274 0.47764 0.28531 0.43575 -0.051804 -0.077296 -0.48562 -0.74488 -0.5892 -0.1611 1.4867 0.68672 -0.49283 0.31338 -0.42939 0.12246 0.833 -0.69309 -0.30294 -0.17345 0.40353 0.9745 -0.32173 -0.016934 -0.13043 -0.50264 -0.053222
valley 0.48326 1.0276 0.061365 -0.076601 -1.185 -0.90853 -1.8505 0.01707 0.35438 -0.29411 -0.3771 -0.64736 0.35413 -1.1453 -1.1306 0.46715 0.99943 0.44736 -0.40077 0.26446 -0.4667 -0.47272 0.26 1.0201 -0.34194 -0.99756 -0.76626 0.83388 -0.51167 -0.70176 2.6505 -0.74407 -0.2244 -0.14868 0.6557 -0.55166 -1.4623 -0.41207 1.2096 0.39973 -0.71574 0.067575 -0.70032 -0.20527 -0.57917 -0.35561 0.52917 -0.85835 -0.18418 -0.65499
1618 0.36024 -0.002043 -0.31265 -1.7213 -0.28243 0.070347 0.12264 0.10765 -1.282 -0.31788 -0.15768 0.26937 0.031185 -0.61683 0.74775 -0.19925 -0.52904 -0.15656 -0.93596 1.3606 0.77269 -0.49275 0.99087 0.050146 -0.14496 0.30203 -0.18421 -0.73218 0.16162 1.0596 -0.73335 -0.84408 -0.6784 0.16963 0.27334 -0.23068 0.16896 0.16077 0.47299 0.37161 0.049724 -0.50582 -0.07251 -0.017734 -1.3544 0.66225 0.25185 -0.93354 -0.45744 -0.82715
1112 0.046039 -0.25282 0.3869 -0.12532 -0.54259 -0.35271 0.329 0.82328 -0.75484 -0.57185 -0.33719 -0.36942 0.40372 -0.8719 0.034682 -0.3126 -1.0377 0.83474 0.25291 0.027259 0.3624 -0.94999 0.46823 0.68746 0.56491 0.98271 -0.0021146 -0.79282 0.055792 1.0038 -0.57755 -0.47836 -0.13688 0.84226 -0.00026266 -0.64694 0.3628 0.39699 0.70726 1.4753 0.17371 -0.45883 -1.0095 0.7544 -0.53182 0.63622 -0.27818 -0.24178 -0.24774 0.27774
interested 0.4116 0.063808 -0.30619 -0.15849 0.57358 0.0025508 -1.3106 0.12357 -0.58728 0.57497 0.45688 0.61737 -0.32576 0.043075 0.35862 0.18583 0.5995 0.56229 0.44531 -0.44969 0.66134 0.79278 0.14963 0.62372 0.48478 -1.3261 -0.15034 -0.442 0.25035 -0.45 2.3763 0.46524 -0.028932 -1.2519 -0.15816 -0.3613 -0.94722 0.73572 -0.40641 -0.17318 0.075562 -0.62859 0.39265 0.62359 0.22655 -0.1311 -0.59132 0.69005 -0.36993 0.41427
provides 0.48512 1.093 -0.037734 0.32808 0.049485 -0.054379 -0.30444 -0.68224 1.4891 0.057534 -0.15238 0.044287 0.8183 -0.22131 -0.66668 -0.060882 0.07078 0.45371 0.62383 -0.26491 0.47777 0.042471 -0.83363 0.4126 -0.099888 -0.53779 0.052345 -0.33438 0.024009 0.051563 3.4232 -0.11337 -0.21978 -0.65694 0.2063 0.45012 0.17021 -0.019079 0.07978 -0.25815 0.92887 -0.24324 0.32895 0.27467 -0.60218 0.16501 0.37422 0.97799 0.15969 0.80097
attending -0.0088445 1.1765 -1.0469 -0.67397 0.4458 -0.7952 -0.83227 0.32024 -0.27958 -0.42928 -0.42335 -0.82887 0.47582 0.006612 0.46832 -0.42672 -0.49139 0.30215 -0.11859 -0.011398 0.87108 0.85554 0.087149 0.46932 -0.1599 -1.1599 0.59666 -0.63804 -1.5589 -0.17613 1.9855 1.3066 -0.63951 -1.0773 0.37847 -0.36901 0.22231 0.43832 -0.19275 0.52759 -1.0226 -0.034031 -0.2356 0.22183 0.83968 0.12096 -0.44871 0.1264 -0.55246 0.16271
focusing 0.4084 -0.061479 -0.28412 -0.096509 -0.16433 0.14935 -0.4504 -0.75491 0.51844 0.21636 -0.40252 -0.37282 -0.51989 0.48754 -0.20005 -0.29562 0.0063109 0.18075 0.50482 -0.18091 0.87271 0.38176 0.10869 0.16679 0.21859 -0.83595 -0.30561 -0.11225 0.16359 0.25302 2.4462 0.32379 0.092785 -1.342 -0.49772 0.10227 -0.96415 0.59177 -0.61671 -0.1924 -0.35036 -0.46812 0.10455 0.11239 0.32189 0.068262 0.34417 0.76349 -0.095773 0.43602
entrepreneurship -0.59212 0.57025 -0.45856 -0.18118 -0.051784 -0.3746 0.13781 -1.6115 0.59191 0.56064 0.027203 -0.020692 8.3168e-05 -0.16186 -0.86822 -0.36705 0.85518 1.0925 0.7623 0.4687 0.90944 0.078538 -0.6645 0.091301 0.36635 -0.054878 0.27679 -1.3036 -0.82977 0.23309 1.1217 1.2341 -0.37699 -1.2317 -1.0366 0.021847 -1.4029 0.69205 0.41254 -0.1169 -0.43696 -0.81692 -0.52681 0.37538 0.48168 -0.42064 0.71954 0.053359 0.20768 0.71652
hydro 0.66466 0.3088 0.96063 0.99039 -1.8501 0.57565 -0.65653 -0.078127 0.28085 0.084458 0.65779 0.23817 0.78849 -0.045669 -1.1549 0.79534 1.0442 1.8407 -0.74256 -0.27299 1.0303 -1.1531 -0.30101 -0.6582 0.48273 0.077909 -0.66096 0.0099118 -0.38944 0.6934 1.0825 0.10622 -0.036244 0.97198 0.13904 -0.17769 -0.20009 0.2725 1.3565 0.75974 -0.0086024 -0.11641 -0.64204 -0.42295 -0.73394 0.74817 -0.74235 1.1762 0.23116 -0.53823
interest -0.13248 0.57927 -0.014704 -0.55086 0.5018 0.3237 -0.64003 -0.20951 -0.30044 0.81763 0.15379 0.64457 -0.017041 -0.56864 0.50691 0.5377 0.24352 -0.70683 -0.057158 -0.33889 1.2106 -0.40119 -0.41012 -0.36941 -0.11299 -1.5593 -0.020573 -0.25147 0.12379 0.77422 3.3972 0.62696 0.81487 -0.72061 -0.11811 -0.90107 -1.2248 -0.14334 0.060322 -0.92028 -0.34912 -0.16979 0.05067 0.38723 -0.30979 -0.50644 0.18057 1.0009 0.19667 0.019838
clean -0.2388 -0.25032 0.047532 -0.30455 -0.46657 -0.075432 0.052256 -0.38614 0.92713 0.51022 -0.41598 0.13172 -0.044987 0.59698 -0.11278 0.012702 0.83813 0.66622 0.52714 -1.1816 0.11522 0.57263 0.4178 -0.83165 0.031019 -1.1038 0.10626 0.77289 0.80683 -0.35523 2.8775 0.444 -0.88926 -0.099022 -0.19078 0.82663 0.36064 1.0253 0.52781 -0.72886 -0.28905 -0.35858 0.63454 0.075873 0.11478 0.45858 -0.65593 -0.42957 0.9178 0.0042006
energy 0.068807 0.36938 1.0194 0.72622 0.33166 -0.11674 0.0519 -0.6263 0.69984 1.1034 0.88412 0.61662 0.06318 0.52554 -0.60775 0.58884 0.86194 0.73354 -0.27098 -1.1423 1.231 -0.38583 0.16454 -1.2052 0.081969 -1.1499 0.34174 0.16186 0.46667 1.2949 3.2169 0.25992 -0.19911 -0.86953 -0.43616 -0.7124 -1.0666 0.37666 1.222 0.49324 -0.11295 0.31521 -0.073187 -0.56738 -0.21031 0.75698 -0.53484 0.86998 0.023162 0.49219
related 0.87054 0.26877 -0.24812 0.77733 -0.10663 0.98854 0.21523 -0.9465 0.45147 0.076455 -0.089917 0.34068 -0.021292 -0.4038 0.85165 -0.22601 -0.69113 -0.051165 0.18378 -0.15451 0.54206 -0.44464 0.44811 -0.26601 -0.38775 -1.1067 -0.43698 -0.68586 0.14373 0.24357 3.3432 -0.42392 0.42776 -1.0883 0.19154 0.20925 -0.2615 -0.43105 -0.036849 0.66139 -0.73273 -0.13605 0.88171 0.84206 0.67846 -0.010663 -0.1246 0.94782 0.086436 0.0039502
women -0.95897 0.86149 -0.53064 -0.19908 0.42945 0.93177 0.067319 -0.21413 0.39488 -0.53561 0.42881 -1.3334 -0.038192 -0.15667 0.94351 -0.21873 -0.15586 0.084439 -0.058604 -0.55145 -0.53281 1.2434 0.63441 0.79234 0.0097936 -1.7124 -0.77291 -1.0024 -0.69472 -0.50487 3.0517 1.4981 -0.32957 -0.53871 -0.21201 -0.14259 -0.02706 0.5858 -0.56642 -0.55984 -0.60905 -0.57062 1.3338 0.67097 1.0643 -0.4181 -0.44273 -1.0158 -0.35795 -0.31111
technology -0.25722 -0.093385 1.1371 0.95147 -0.45156 -0.55302 -0.48637 -1.6476 0.59422 0.75211 0.74173 0.26373 -0.29181 0.21239 -0.86431 0.87086 -0.34193 0.99052 0.026313 -0.25234 1.4177 0.0025313 -0.65843 -0.35972 0.56982 -1.6079 -0.19695 -0.99719 0.002233 0.046416 3.2575 -0.26845 -0.09459 -1.3317 -0.039934 -0.1586 -0.8549 1.0837 0.20209 -0.18876 0.34616 -0.32074 0.26552 0.48898 0.65638 0.50432 0.80157 0.58182 -0.068956 0.39337
1518 0.36309 -0.33118 -0.29182 -0.91792 -0.24685 -0.20955 0.14379 -0.079946 -1.0335 -0.10039 0.1048 -0.082808 0.43345 -0.76479 0.20445 -0.25818 -1.3707 -0.10866 -0.85189 1.0274 0.1918 -0.57706 0.69352 0.010808 0.3224 0.49638 0.40252 -0.40887 0.44254 0.65427 -0.75479 -0.74124 -0.69975 0.057225 -0.0045726 -0.50216 0.16788 0.4739 0.010996 0.95946 0.46063 -0.37942 -0.48441 0.12191 -0.75302 0.40586 0.56391 -0.92441 -0.40851 -0.10456
young -0.3874 0.79979 0.008999 -1.0586 0.84764 0.48831 -1.2072 -0.041094 -0.77811 0.22285 0.14036 0.30871 0.056524 0.38498 0.35064 -0.61762 0.57805 0.37778 -0.38288 -0.059694 -0.69362 1.0951 0.29218 0.72216 0.45157 -1.7643 -0.36862 -0.99758 -0.32863 -0.3417 2.7919 0.59432 0.14142 -0.47239 0.40147 0.34521 -0.43788 0.04117 -0.0063478 -0.71631 -0.40433 0.36837 0.19039 -0.011441 1.338 -0.63506 -0.39155 -1.0359 -0.14267 0.29742
careers -0.36046 0.62766 -0.085015 -0.60696 -0.62356 0.082073 -1.0572 0.44477 -0.23163 0.37055 -0.056834 0.57393 -0.9394 0.77143 0.023999 -0.29207 0.32786 0.31117 0.59283 -0.32176 0.47766 0.86968 -0.12861 0.24517 0.1404 -0.31437 -0.64564 -1.4695 0.21509 0.19321 2.0476 1.0599 0.29848 -1.1782 0.47894 0.81716 -0.89162 0.7724 -0.51193 -0.34331 -1.0695 -0.766 -0.031307 0.71765 -0.19726 -0.55528 0.22344 -0.14723 -1.018 0.25405
career -1.2247 0.85041 -0.71293 -0.099683 0.14519 0.33647 -1.3479 0.48361 -0.15461 0.44292 -0.1968 0.023755 -1.734 0.37821 0.56249 -1.4971 -0.14468 0.21243 -0.96609 0.59338 -0.1072 0.63978 -0.25835 -0.10091 0.049447 -1.2831 -0.18392 -0.84718 0.19342 0.1409 2.8215 0.62139 0.65869 -0.35462 0.6917 0.69813 -0.1506 1.4781 -0.21866 -0.64211 -0.78204 -0.35708 -0.53845 0.13838 -1.0265 -0.015454 0.24306 -0.10806 -0.41424 0.30424
girls -0.65826 0.70134 -0.65681 -0.98726 0.48835 0.56114 -0.60911 -0.36035 -0.036358 -0.11499 0.2281 -0.459 -0.10042 -0.42613 0.79978 0.017422 -0.34133 0.73644 -0.016533 0.054401 -0.17343 1.6337 0.68253 1.4635 -0.27418 -1.0041 -0.54461 -0.3128 -0.22009 -1.1839 2.4682 1.0396 -0.060377 -0.50688 0.86831 0.49171 0.27115 -0.71569 -0.12354 -0.94097 -0.85589 -0.75384 0.50264 0.09436 1.2041 -0.5627 0.31881 -1.302 -0.024697 -0.12486
excelling -1.1533 -0.19649 -0.875 -0.6553 -0.16238 -0.70627 0.19787 0.13515 -0.11886 0.66365 0.43556 -0.31686 -0.076347 -0.415 0.032318 -0.25011 0.16325 0.96644 0.011467 0.099639 -0.19155 0.58168 0.082468 0.69382 0.42384 0.29128 0.31839 -0.16036 -0.27116 -0.075166 -0.24205 0.62987 0.85128 -0.91634 0.48436 0.50413 -0.20905 0.87841 -0.51267 -0.0374 -0.37347 -0.56472 -0.11248 0.99462 -0.013522 -0.49271 0.70384 0.29442 -0.32085 -0.057742
sports -1.1476 1.486 -0.53553 1.4884 -0.48945 -0.78874 -1.0603 -1.1097 -0.18863 -0.38284 0.19501 0.067649 -0.74472 0.24205 0.96511 -0.032038 -0.14121 1.7449 -0.73301 -0.58727 0.17896 0.57795 -0.21835 1.1371 -0.51163 -1.0939 -0.56724 0.0020169 -0.30077 0.18371 2.6094 1.0519 -0.008775 -0.72297 -0.52943 0.663 -0.024681 0.2147 -0.38752 0.099251 0.58373 0.10047 -0.17571 0.99239 0.050743 0.24906 -0.55173 0.55462 0.073031 0.46026
athletes -0.64258 1.2225 0.21762 0.043937 -0.036189 -0.14187 0.0043862 0.078213 0.43474 0.27585 0.71396 -0.54147 0.023399 0.085307 1.3268 -0.28534 0.47777 1.0472 -0.56289 -1.1362 -0.63108 0.63893 0.70062 0.4619 0.039592 -1.111 0.013855 -0.80024 -0.87757 -0.39974 2.0119 1.7218 -0.27575 -1.0014 0.47845 0.31071 0.60175 0.58698 -0.76351 -0.114 -0.75971 -0.32174 1.1266 1.0846 0.76338 -0.45602 -0.73912 0.41942 -0.61516 -0.41447
sport -0.85959 0.61038 -0.81626 0.63196 -0.65046 -0.059288 -0.60121 -0.76855 0.10574 -0.073164 1.0889 -0.10316 -0.9571 -0.12476 0.83942 -0.1734 0.24719 2.072 -0.53134 -1.3647 -0.80506 0.30736 -0.65437 1.075 0.05007 -1.2526 -0.88551 0.45704 0.0088123 0.33761 2.3207 1.2026 -0.52619 -0.21536 -0.14762 0.17182 -0.1526 0.42655 -0.66796 -0.47819 0.099182 -0.63394 0.357 0.38775 -0.079839 -0.085529 -0.42402 0.32755 0.72617 -0.24605
518 0.19193 -0.47784 0.95055 -0.40431 0.14538 0.094425 0.71291 -0.78776 -0.0052802 0.0072907 -0.89383 -0.68833 0.32497 -1.0227 0.073569 -0.82602 -0.61111 0.44843 -0.38813 0.54107 0.050096 -0.41607 0.28119 -0.18675 0.26225 0.74859 0.47002 -0.27622 -0.4645 -0.38096 0.038996 0.0082319 1.1062 0.97117 0.43816 -0.52017 0.69801 -0.11149 -0.38629 0.34333 -0.20527 -0.44574 0.68482 0.33582 -1.0472 0.46612 -0.098589 -0.11531 -0.15395 -0.044569
k12 0.036529 -0.81272 -0.29642 -0.66736 -0.51713 0.43485 -0.12373 -0.69095 0.84132 0.11772 -0.29556 -0.036801 0.34161 -0.62498 -0.79554 -0.13701 -0.72918 0.71683 0.73444 0.48605 -0.033483 -0.047344 -0.0030802 0.55162 -0.27367 0.848 -0.02967 0.12523 -0.6275 -0.47232 -0.77933 -0.062233 0.72862 0.22472 -0.37204 -0.30087 -0.010934 -0.61328 0.75 -0.43602 0.065631 -1.5007 -0.51605 0.79542 0.6097 0.43165 0.27827 0.57523 0.199 0.51731
physical -0.12891 0.87382 -0.62575 0.058004 0.21792 0.68146 0.8846 -0.079641 0.63976 0.51062 0.82837 0.076263 -0.36419 -0.46529 0.24416 0.017944 -0.3681 -0.028195 -0.19198 -0.54108 -0.59446 0.80583 -0.29901 -0.53281 0.23476 -0.89921 -0.75076 -0.66766 0.94586 0.40666 3.2709 0.10229 0.15955 -1.977 0.26168 1.222 0.50775 0.4006 0.26538 0.14399 0.09643 -0.31987 0.12833 1.2901 0.20085 -0.42059 0.91575 0.40421 -0.27967 0.32974
activity 0.52937 -0.28307 -0.261 0.097073 0.20905 -0.065966 0.053632 -0.3806 0.64946 0.74585 0.69589 -0.65328 0.17086 0.16368 -0.052837 0.40613 -0.060179 -0.34618 -0.61729 0.20136 0.82436 -0.55406 0.013927 0.01525 -0.51169 -0.74126 0.13539 -0.013669 1.0116 0.91089 3.2453 -0.055916 0.37984 -1.553 -0.42328 -0.23783 -0.51467 -0.55631 -0.30585 0.56 -0.90403 -0.50843 -0.51165 0.3047 0.73138 -1.2087 0.51148 0.37159 0.11049 0.47064
recreation -0.15152 1.4289 -0.90087 0.73607 -0.55029 -0.65226 -1.0157 -0.95213 1.1966 -0.80496 -0.4865 -0.13001 0.79882 -0.63316 -0.416 0.11505 1.0034 1.0257 -0.35125 -0.24388 0.17562 0.32978 -0.98226 0.34222 -0.22951 0.26939 0.47273 0.094112 0.28658 0.22909 1.8736 0.30463 -0.12399 -1.2235 0.13948 1.0835 0.13363 -0.063793 0.27343 0.34039 -0.38139 -0.30442 -0.17456 1.0592 -0.45338 -0.56825 -0.29377 -0.70688 0.78323 0.58481
council -0.38584 0.23794 -1.1063 -0.20352 0.47091 -0.49126 0.29409 -0.11087 0.34218 -1.6158 -0.18996 -0.051517 -0.046898 -0.19004 -0.47074 0.75303 0.61512 -0.20085 0.54737 0.03072 0.71877 -0.056388 0.26738 -0.087047 -1.1 -1.721 0.52812 -0.13642 -1.6021 0.46446 2.8671 0.026513 -1.4701 -1.1034 -0.001037 -0.56411 0.80465 -0.27382 -0.1493 0.16714 -0.63796 -0.25144 -0.16524 -0.48502 -0.63584 1.1569 -1.4121 0.69418 0.016723 0.17066
an 0.36143 0.58615 -0.23718 0.079656 0.80192 0.49919 -0.33172 -0.19785 0.13876 0.16804 0.12557 -0.24494 -0.092315 0.35135 -0.024396 -0.31713 0.071206 0.37087 -0.82027 0.21193 -0.052153 0.29928 -0.49494 -0.12546 -0.012394 -2.2174 -0.082666 0.15184 0.050396 0.61229 3.7305 -0.93152 -0.28716 -0.48056 0.060682 0.058104 0.42065 -0.046598 0.083503 -0.23819 0.38828 0.36926 -0.44066 0.075673 -0.050556 -0.42269 -0.21577 0.39362 0.36523 0.36077
recognizing -0.37044 0.31227 -0.61648 -0.19952 0.4967 0.83765 0.36725 0.072613 0.35838 0.42723 0.51704 -0.23353 0.068724 -0.29931 0.11855 0.083349 0.1304 -0.42893 1.0287 0.1199 -0.048094 0.084992 -0.43269 -0.30147 0.46717 -1.1237 -0.68537 -0.39477 0.17368 -0.58971 1.4084 0.89424 -0.59599 -1.1181 -0.31898 -0.21304 0.0020074 -0.086 -1.1959 0.22271 -0.57548 -0.3888 0.024964 -0.35601 -0.92545 -0.14571 -0.24399 0.93112 -0.4907 -0.19987
have 0.94911 -0.34968 0.48125 -0.19306 -0.0088384 0.28182 -0.9613 -0.13581 -0.43083 -0.092933 0.15689 0.059585 -0.49635 -0.17414 0.75661 0.4921 0.21773 -0.22778 -0.13686 -0.90589 -0.48781 0.19919 0.91447 -0.16203 -0.20645 -1.7312 -0.47622 -0.04854 -0.14027 -0.45828 4.0326 0.6052 0.10448 -0.7361 0.2485 -0.033461 -0.13395 0.052782 -0.27268 0.079825 -0.80127 0.30831 0.43567 0.88747 0.29816 -0.02465 -0.95075 0.36233 -0.72512 -0.6089
rick -0.76672 0.4028 0.53501 0.34815 -0.18593 0.17921 -1.8304 0.66503 -0.83114 -0.7394 -0.53836 0.1572 -0.8988 -0.17734 0.11664 -0.50697 0.32141 -0.30526 -0.174 -0.51087 -1.0261 0.056855 0.042845 -0.10317 -0.092284 -0.64157 -0.15557 0.16866 0.44757 -0.51872 0.92952 -0.31075 -0.11563 -0.40326 0.17732 -0.22728 0.095659 -0.16563 0.77801 -0.097219 0.33815 0.39168 -0.87106 -0.77249 0.22682 -0.45931 -0.3519 0.20907 -0.78851 2.4024
hansen -0.67412 0.24838 0.40446 0.17915 0.11272 0.90815 -0.92765 0.016469 0.39029 -0.85742 0.47058 0.18757 -0.75696 -0.22959 0.71619 -0.021312 1.1326 -0.25086 -0.31112 0.12116 -0.45398 0.10373 0.31611 -0.14204 0.87621 -0.36834 0.18531 -0.31105 -0.75312 -0.25647 0.35776 -0.33442 0.12086 0.1885 -0.65108 -0.23513 0.92209 0.72829 1.0088 0.47174 0.43089 0.24327 -0.28692 -0.57382 0.28225 0.026539 -0.33723 -0.20356 -0.39183 0.82691
promoting -0.47102 0.40086 -1.0585 0.0082728 -0.16813 0.38966 -0.39824 -1.4885 1.0486 0.94674 0.2369 -0.035536 -0.26411 -0.12306 -0.5922 -0.60091 0.34528 0.20963 1.0981 0.17318 0.6742 0.35331 -0.17065 -0.019383 0.046882 -0.85981 0.29082 -0.54534 0.27902 -0.076453 2.7825 1.1811 -0.56497 -1.0243 -1.0456 -0.23072 -0.82829 0.38214 -1.3306 0.18996 -0.29534 -0.80492 -0.32649 -0.37795 0.43018 -0.20057 -0.69903 0.18757 0.16112 0.2617
accessibility -0.40823 0.85264 0.11501 -0.018327 -0.89829 -0.22093 0.1606 -1.0829 1.42 0.80559 0.52456 0.056286 0.18906 -0.85712 -0.60836 0.34429 -0.4306 0.19699 1.7015 -0.81234 -0.23701 0.35512 -1.2311 0.3172 0.7869 0.31651 0.29909 0.20331 0.47563 0.20095 1.2147 0.90273 0.40562 -1.5309 0.16617 0.10015 0.70197 -0.030887 -0.62595 0.19272 0.4843 -0.71001 0.27947 0.73226 -0.76437 -0.29628 0.2708 0.32824 0.98131 0.41277
inclusivity -0.25974 0.11439 -1.1533 -0.65065 0.60912 0.46158 1.0833 -1.0742 1.0022 0.60482 -0.34764 -0.35273 0.022614 -0.75409 -0.50545 0.39279 0.40782 -0.0010467 1.3288 -0.20116 0.22327 0.41081 -0.19171 -0.22155 -0.123 1.0391 -0.1838 0.52717 0.66505 -0.012559 -0.58177 1.1059 -0.1771 -0.18879 -0.42584 -0.45972 -0.17527 -0.14871 -0.36277 0.43686 -0.34716 -0.93238 -0.4343 0.6337 -0.38453 0.25722 -0.0021885 0.40922 -0.14263 -0.058846
awareness 0.23382 0.68008 -0.55051 -0.45555 -0.1199 0.56675 0.32615 -1.0844 1.8903 0.52993 0.29362 -0.34797 0.37313 -0.68364 -0.21721 -0.23527 -0.084973 0.24874 0.34078 -0.051298 0.15884 0.56179 -0.2169 -0.17959 0.65737 -0.78836 -0.50291 -0.63763 0.33216 0.45101 2.3997 1.6966 -0.31859 -1.8997 -1.1063 0.31691 -0.46862 -0.51014 -0.13397 -0.24467 -0.29777 -0.72188 -0.27648 0.12438 0.99483 -0.088208 0.31669 0.33953 0.24876 0.29466
assistance 1.0603 -0.00358 0.19913 -0.47867 0.22712 -0.07895 -0.073569 0.20873 1.2049 -0.48919 0.20163 0.48798 0.72553 -0.60995 0.034981 -0.45106 0.34116 0.14434 1.102 0.32146 0.41441 0.47278 -0.54738 -0.70964 0.13742 -1.0253 0.80988 -1.1551 -0.1258 0.15007 3.2658 0.78545 -0.54558 -0.50242 -0.0082065 0.90215 0.082199 -0.42365 0.087276 -0.29254 -0.088295 0.11749 0.88427 -0.85118 -0.36069 -0.28476 -0.54633 1.2059 -0.2927 0.50238
study 0.7196 0.71446 -0.51931 -0.7443 -0.06024 0.54708 -0.54618 -0.99133 0.73429 0.18832 0.32969 -0.27397 0.28741 -0.09161 0.32494 -0.017665 -0.13707 -0.17801 -0.24557 0.11867 0.34275 0.3795 0.42772 -0.26742 0.37385 -1.2254 -0.77036 -0.70446 -1.175 0.14247 3.0784 -0.39591 -0.30366 -1.7702 -0.0043639 -0.46792 -0.08895 0.89358 0.88059 0.22266 -0.53512 -0.49875 0.61852 0.69546 0.39189 0.053596 0.81017 0.87904 -0.37766 0.46718
abroad 0.50217 -0.11658 0.3337 -0.89609 -0.0052421 -0.52775 -0.61397 0.17289 -0.083344 0.69367 0.59066 0.012687 0.66695 -0.37953 0.84797 0.04951 -0.065837 -0.1054 0.39395 0.26088 1.1775 0.19964 0.18798 0.2708 0.035957 -1.5276 0.173 -1.0911 0.14459 0.35211 2.6696 1.0725 0.23814 -0.77173 -0.3151 0.18501 -0.85647 0.60907 -1.1626 -0.17398 -0.13961 -0.022355 1.3175 -0.10208 0.29948 -0.35646 -0.97406 0.31784 -0.50252 -0.65765
international -0.1666 0.68994 -0.76138 0.55857 -0.28302 -1.0075 -0.35157 -0.46751 0.99938 0.21826 0.87406 0.22722 -1.0739 0.32807 0.14755 -0.10786 0.57761 0.065902 -0.73381 -0.29534 1.1916 0.70041 -0.77054 0.04179 -0.84269 -1.6856 0.33451 -0.6543 -1.2509 0.34069 3.3936 0.81089 -0.48503 -0.85079 -0.49627 -0.45548 -0.17286 -0.10367 -0.28043 0.035118 0.09691 0.0286 1.0817 -0.47067 -0.0069481 0.48139 -0.34924 0.91937 -0.082162 -0.46327
studying 0.29422 0.35414 -0.86546 -0.73286 -0.083424 -0.043359 -0.63079 -0.4231 -0.25952 0.26196 0.82022 0.087081 0.31363 0.25697 0.12994 0.13139 -0.2132 0.49243 -0.20708 0.23142 0.79596 0.68741 0.3804 0.086785 0.72587 -1.1142 -0.13817 -0.72487 -0.79564 -0.33821 2.2126 -0.29971 -0.3857 -1.5723 0.29289 0.15576 -0.45823 1.0286 0.58909 0.60666 -0.47303 -0.461 0.61692 0.55924 0.50318 -0.082257 0.96579 0.39226 -0.57527 -0.10731
one 0.31474 0.41662 0.1348 0.15854 0.88812 0.43317 -0.55916 0.030476 -0.14623 -0.14273 -0.17949 -0.17343 -0.49264 0.26775 0.48799 -0.29537 0.18485 0.14937 -0.75009 -0.35651 -0.23699 0.1849 0.17237 0.23611 0.14077 -1.9031 -0.65353 -0.022539 0.10383 -0.43705 3.781 -0.044077 -0.046643 0.027274 0.51883 0.13353 0.23231 0.25599 0.060888 -0.065618 -0.15556 0.30818 -0.093586 0.33296 -0.14613 0.016332 -0.24251 -0.20526 0.07009 -0.11568
world -0.41486 0.71848 -0.3045 0.87445 0.22441 -0.56488 -0.37566 -0.44801 0.61347 -0.11359 0.74556 -0.10598 -1.1882 0.50974 1.3511 0.069851 0.73314 0.26773 -1.1787 -0.148 0.039853 0.033107 -0.27406 0.25125 0.41507 -1.6188 -0.81778 -0.73892 -0.28997 0.57277 3.4719 0.73817 -0.044495 -0.15119 -0.93503 -0.13152 -0.28562 0.76327 -0.83332 -0.6793 -0.39099 -0.64466 1.0044 -0.2051 0.46799 0.99314 -0.16221 -0.46022 -0.37639 -0.67542
internationally -0.28438 -0.19017 -0.51425 -0.27219 -0.46901 -0.11507 -0.68163 -0.52692 0.40423 1.0493 1.1456 -0.25806 0.10851 0.35439 0.33635 0.26008 0.88473 0.22621 0.46453 0.27747 0.24888 0.29114 0.017499 0.58899 -0.15706 -0.61457 -0.27765 -0.31236 -0.72476 0.3362 2.4556 -0.22048 0.080888 -0.79263 -0.20823 -0.26432 0.057693 0.80237 -1.6471 -0.25869 -0.23914 -0.31311 0.61383 -0.62947 -0.66104 -0.22577 -0.9295 0.55186 -0.84067 -0.20083
government 0.38797 -1.0825 0.45025 -0.23341 0.086307 -0.25721 -0.18281 -0.10037 -0.50099 -0.58361 -0.052635 -0.14224 0.0090217 -0.38308 0.18503 0.42444 0.10611 -0.1487 1.0801 0.065757 0.64552 0.1908 -0.14561 -0.87237 -0.35568 -2.435 0.28428 -0.33436 -0.56139 0.91404 4.0129 0.072234 -1.2478 -0.36592 -0.50236 0.011731 -0.27409 -0.50842 -0.2584 -0.096172 -0.67109 0.40226 0.27912 -0.37317 -0.45049 -0.30662 -1.6426 1.1936 0.65343 -0.76293
residents 0.75149 -0.090452 0.50937 -0.67758 -0.038489 -0.46475 -1.2437 0.65906 -0.34193 -0.4178 -0.26911 -1.6271 1.7198 -1.0115 0.24988 0.57572 0.11495 0.039286 0.066206 -0.26653 0.18257 0.72599 -0.39516 0.41391 0.11902 -1.094 0.043732 0.097279 0.39398 -0.47724 2.9863 0.70068 0.11455 -1.0247 0.083181 0.13563 0.060835 -0.9312 0.55158 0.70222 -0.9401 0.52028 0.60405 0.12646 0.16149 -0.33901 -1.2959 -0.42574 -0.077817 -0.32762
institutions 0.27792 -0.090869 -0.11146 -0.90254 0.065542 -0.35799 0.1395 -0.37716 -0.26422 0.11693 0.17881 0.22094 0.084103 0.264 -0.66261 0.2662 0.54054 -0.095211 1.3879 0.46674 0.96412 0.070181 -0.37508 0.081387 -0.98752 -0.92283 -0.26418 -1.052 -1.0181 0.097222 3.5457 0.64074 0.57182 -1.1492 -0.38677 0.22614 -0.55117 0.068196 0.36002 -0.26739 -0.85089 -0.94554 1.1348 0.81161 -0.54762 0.27764 -0.97794 0.74894 -0.091665 -0.40992
gain -0.37897 -0.23067 1.1055 -0.11032 0.89588 0.2429 -0.35648 0.20223 0.098247 0.73622 0.22148 -0.68618 -0.0041578 -0.67428 -0.34863 0.11675 -0.0040749 -1.0123 -0.56834 -0.6171 0.60131 -0.2867 -0.39967 -0.57994 -0.18387 -1.0233 -0.24734 -0.95059 0.54283 0.53926 3.119 0.92111 -0.0023875 -0.2654 0.23735 -0.69674 -0.7011 0.25519 -0.04516 -0.98168 0.054603 -0.39264 -0.20165 0.49139 -0.67188 -0.57845 0.33675 0.55314 0.28371 -0.34705
perspectives 0.16034 0.84737 -0.72327 -0.1755 0.20837 0.46443 0.169 -1.3695 -0.50638 0.088331 -0.43165 0.17275 -0.14883 0.52079 -0.66423 -0.23597 0.12829 -0.77384 0.74412 -0.30615 0.39952 0.94735 0.33336 0.32776 0.86027 0.63177 -0.88764 -0.62601 -0.51062 0.30716 1.5488 0.42693 0.1138 -1.5797 -0.42435 -0.33678 -1.283 0.04616 -0.52479 0.14773 -0.0031221 -0.75894 0.61544 0.59245 -0.15846 0.37143 1.111 1.1642 0.049563 0.16079
peo 0.36983 -0.97525 0.53111 -0.43162 0.47108 -0.91449 1.489 -0.39205 0.36495 -0.91318 0.63787 -0.15312 0.15867 0.69656 -0.24511 0.27881 0.31665 0.82147 0.60434 0.50375 -0.010474 0.067846 -0.26371 0.15409 0.12969 0.53013 -0.205 -0.77415 -1.4097 0.44977 -1.0494 -0.34572 -0.14061 0.73307 -0.26945 0.18576 0.049265 0.22724 0.15292 -0.61387 0.037957 -0.46958 0.62905 0.36812 0.444 -1.7323 0.75615 -0.62301 0.39253 0.0066304
peace 0.57799 0.99986 -0.53279 -0.50667 0.78591 -0.12575 -0.22159 0.3003 -0.068389 -0.15202 -0.23185 -0.30412 -1.2577 0.013074 -0.01122 0.37426 1.3629 -0.64067 1.1377 0.3574 0.13101 1.2354 -0.18961 -0.76785 0.43404 -1.0692 0.13794 -0.29264 0.24017 0.48798 3.3225 0.11328 -2.4298 -0.26524 -0.41547 -0.63322 -0.2971 -0.74152 -0.78166 0.21767 -0.97039 -1.0924 -0.37907 -1.4855 -0.080289 0.31801 -0.38521 0.74582 -0.95574 -0.92374
usa -1.256 0.67149 0.1418 1.5068 -0.54231 -0.014556 -1.0648 -0.60224 0.55127 -0.67244 0.39114 -0.55533 -0.54794 -0.37832 0.35629 0.15954 0.030876 0.31742 -0.87051 0.21663 -0.30207 0.12983 0.19678 0.79039 -0.56554 -0.82879 -0.19614 -0.82778 -0.6898 -1.0809 1.8179 -0.26586 0.065575 -0.1093 -0.66603 -1.1031 0.12164 -0.29828 -0.0003941 -0.72735 0.905 -0.74758 0.76054 -0.4513 0.10696 0.8653 -0.43969 -0.47675 -0.91554 0.9724
graduate -1.164 1.2679 -0.21186 -1.1841 0.037335 -0.34643 -0.97186 -0.54965 -0.32713 -0.16357 0.17323 -0.16327 0.15325 -0.37397 -0.1666 -0.35932 -0.25719 1.218 -0.085867 0.79234 0.58087 1.0098 -0.093864 0.039381 -0.021806 -1.4802 0.11213 -1.3806 -1.6038 -0.48439 1.9821 0.055824 -0.394 -1.4108 0.76513 0.20046 -0.42519 1.2023 1.3316 -0.20597 -0.45072 -0.40206 0.19261 0.37868 -0.44808 -0.44462 0.97568 0.20168 -0.94827 0.95086
supporting 0.064338 -0.022289 0.31655 -0.47395 0.086996 0.89085 0.032001 -0.50133 0.018076 0.38601 -0.26567 0.024503 -0.30101 0.18315 -0.63706 -0.64188 0.70997 0.013183 0.54239 -0.15357 0.061258 0.36383 0.27424 -0.23541 -0.28577 -1.2579 0.11757 -0.52438 -0.49283 -0.074855 2.6937 0.21316 -0.46992 -0.88782 -0.27201 0.25182 -0.30859 -0.34465 -1.4776 -0.60014 -0.004746 0.38323 -0.087034 -0.91573 -0.33025 -0.28754 -0.83987 -0.022529 -0.5255 -0.024065
other 0.64756 0.16 0.029191 0.35118 0.089119 0.61115 -0.66362 -0.51724 -0.46521 -0.08845 0.0502 0.26329 0.12407 0.043832 0.17283 0.01317 0.14168 -0.15827 -0.10427 -0.9307 0.21646 -0.10753 0.62087 0.36761 -0.48144 -1.28 -0.55152 -0.72023 -0.17097 -0.47993 4.0165 0.47054 0.093614 -0.86341 0.50881 0.33353 -0.35962 -0.16648 -0.31803 0.49003 -0.36697 0.32051 0.70932 0.62878 0.70128 0.1302 -0.73769 0.10325 -0.30964 -0.44213
countries 0.56599 0.26921 -0.050632 -0.26219 -0.078157 0.042565 0.12923 -0.50756 0.47105 0.026793 0.67335 0.076484 0.27775 0.37278 0.5604 0.27349 0.78066 -0.53707 0.68602 -0.0069331 0.10441 -0.28288 1.049 0.22643 0.038323 -1.2473 0.60024 -0.59904 -0.51407 0.39366 4.2808 1.3038 0.078842 -0.27142 -0.36369 -0.62316 -0.65936 0.2368 -1.4842 0.4032 -1.1575 -0.28149 2.1609 -0.61081 0.081813 0.87071 -1.1518 0.90462 -0.57503 -0.82891
aga 0.46333 0.59962 0.10612 0.37727 0.35957 -0.29734 0.44899 -0.41186 0.74815 0.5981 0.79342 0.11838 -0.46487 -0.80258 -0.00028529 0.9252 0.13336 1.0458 0.46248 1.1854 0.62874 0.29911 -0.21897 -0.31318 0.28379 0.11274 -1.1379 -1.0639 -1.0201 0.67207 -0.074394 0.54388 -0.13965 1.2301 0.70391 0.76293 0.50727 1.2157 0.40247 0.92176 0.6685 0.013845 -1.1088 -0.12808 0.24599 0.082495 -0.61179 0.22839 0.085146 -0.66356
khan -0.37258 -0.64888 0.4949 0.50193 0.66345 -0.44926 0.54122 0.82667 0.63389 -0.20769 0.3055 0.11506 -1.1576 -0.71914 0.090013 0.97277 0.69919 0.12876 0.21923 1.2588 0.70573 1.3399 1.264 0.29572 0.83489 -1.3567 -0.94433 -1.1197 -0.49438 0.83659 1.5364 -0.49236 0.10802 0.98305 1.5957 1.1631 0.58743 0.76894 -0.67048 1.7275 0.24359 1.8264 -1.0247 -0.65509 0.14846 -0.22518 -0.96989 -0.29853 0.26371 -0.83129
multiple 0.83276 0.59926 0.68273 0.74114 -0.5631 1.6076 0.20039 -0.23012 0.40957 0.16909 -0.049285 -0.11546 -0.24085 0.26099 0.030862 -0.46213 -0.63837 -0.19323 -0.053214 -0.7278 0.22022 -0.32635 0.57015 0.43379 -0.38157 -0.46775 -0.46507 -0.84726 0.03846 -0.43918 3.188 0.16521 0.50067 -1.184 0.78207 0.94561 0.49281 0.048672 -0.81531 0.21448 -0.11187 -0.096144 0.17076 1.0118 0.13529 -0.47653 0.29894 0.19584 -0.34292 -0.18119
developing 0.67348 0.53093 0.58076 0.30632 -0.66202 0.62701 -0.21569 -1.0779 0.7952 0.58828 0.54395 0.27573 -0.38283 0.27634 -0.33443 0.63342 0.59111 0.075573 0.85277 0.19485 0.14078 -0.068953 0.32645 -0.11523 0.47039 -0.7966 0.46494 -0.77216 0.2557 0.31881 3.2288 0.51425 0.11166 -1.142 -0.2384 -0.0457 -0.68371 0.98095 -0.38494 0.019003 -0.39158 -0.38509 0.86598 -0.44107 0.91724 0.71694 -0.11313 0.57095 -0.46298 0.44807
postgraduate -0.40546 1.1799 -0.96138 -1.0922 -1.1083 -0.52697 -0.11701 -0.35475 0.47975 -0.090899 0.3462 0.0071489 0.74436 -0.56382 -0.88169 -0.37954 -0.20739 1.3001 -0.0010219 0.80252 1.2348 1.3521 0.075093 -0.39466 -0.018727 -0.26027 0.45306 -1.2053 -1.7896 -0.064231 1.6485 0.15953 -0.50288 -0.83641 1.321 0.64515 0.068596 1.4473 0.51004 -0.16009 0.12272 -1.1408 0.96565 0.7516 -0.71408 -1.1154 1.2597 1.0729 -0.59234 0.203
assist 0.59782 -0.39491 0.50296 -0.34485 0.4853 0.08168 -0.52607 0.56162 0.79658 -0.32436 0.74571 0.47043 -0.092929 0.35124 -0.45778 -0.61924 0.60373 -0.42565 0.22011 -0.1123 -0.10085 0.19007 -0.56416 -0.38404 0.23033 -0.57503 0.97275 -1.5387 -0.0053691 -0.78404 2.4664 1.3623 -0.53217 -0.87589 0.089135 1.054 0.18778 -0.08142 0.43176 0.14199 -0.19257 -0.17084 0.51826 -0.6182 -0.25183 0.12439 -0.058942 0.652 -0.22343 0.10212
next 0.39119 0.34992 0.22498 0.11417 0.31087 -0.52257 -0.92955 0.25335 -0.089138 -0.42545 -0.31354 -0.45698 -0.64173 0.31926 1.0812 0.61861 0.028539 -0.34201 -0.68273 -0.25298 0.43399 -0.2645 -0.057452 0.0082656 0.015807 -1.539 0.28407 0.14952 -0.074397 -0.18124 3.5567 0.63548 -0.76356 0.21495 0.23488 -0.30534 0.46327 0.64019 0.077317 -0.88417 -0.71713 -0.16503 -0.21991 -0.38886 -0.26111 0.58742 0.29305 -0.20466 -0.0059552 0.1746
gen 0.12888 0.37587 0.89736 0.93552 -0.74999 -1.1695 0.73687 -0.67919 0.12943 -0.95974 -0.48005 0.29102 -0.87898 0.18683 0.83725 0.26957 -0.036876 -0.23574 0.55216 0.99384 -0.59796 0.015509 0.3028 0.70176 0.12623 -0.74603 -0.46326 -1.0312 0.19301 1.0436 0.32213 -0.055577 -1.0392 0.67415 -0.33085 0.058036 -0.53817 -0.67925 -0.050779 0.2954 0.083143 0.81371 1.6108 -1.3249 1.3791 1.3779 0.24119 -0.3513 0.20818 0.34645
applying -0.54727 -0.24344 -0.32077 -0.7611 -0.18307 0.64674 0.42443 -0.58767 -0.051504 0.28738 0.85843 0.0035426 0.45786 -0.10805 0.095369 0.51313 0.1172 -0.25303 0.81033 -0.86824 0.55809 -0.043786 -0.11214 -0.071704 0.024615 -0.94414 0.096584 -0.29892 0.22933 -0.37637 2.0174 0.062165 -1.1034 -0.87144 0.17497 0.0048625 0.086156 0.68908 0.10762 -0.11549 0.13187 -0.30585 0.95635 0.87804 -0.31239 -0.71594 0.94197 0.83936 0.23662 -0.22158
us 0.19086 0.24339 1.2768 -0.038207 0.6094 -0.70188 0.040862 -0.44903 0.0080416 -0.18819 -0.68578 -0.12465 -0.32855 -0.073507 0.79112 0.31981 0.081126 -0.033057 -0.6007 0.014536 0.42773 0.71318 0.13327 -0.64247 0.066402 -2.2346 0.013668 -0.45647 0.40542 -0.0042052 3.4561 0.54602 -0.3789 0.58198 -0.22852 -0.8409 -0.30465 -0.69669 -0.4232 -0.81757 0.036113 0.25739 1.745 -0.61482 0.41547 0.40002 -0.51528 0.89973 -0.54324 0.69393
exchange -0.33034 0.033938 0.093211 0.55767 1.126 -0.83191 0.12359 -0.20653 -0.55785 0.35995 0.21178 0.10075 -0.01304 0.08997 0.26551 0.46088 -0.6543 -0.66812 -0.3341 0.043334 2.1307 0.045558 -0.031568 -0.61382 -0.7912 -0.98564 1.2532 -0.25039 0.14453 0.12943 3.6045 -0.1532 0.39279 0.29291 -0.057073 -0.75694 -0.53804 -0.39639 0.094155 0.010419 -0.058462 -0.25224 0.82947 0.050926 0.12426 -0.65747 0.18277 0.94694 0.22216 -0.26753
1850 -0.25194 0.27672 -0.5807 -1.2701 -0.090975 0.42772 -0.9884 -0.082285 -0.97879 -0.95069 -0.15604 0.026337 0.74169 -0.88464 0.26712 -0.26556 -0.50082 -0.2401 -0.68295 0.60856 1.0956 -0.84546 0.060033 0.053484 0.25015 -0.14037 0.23139 -0.65804 0.26196 0.69201 0.82009 -1.5954 -0.57719 -0.3867 0.085989 -0.69193 0.19915 0.55217 0.36183 0.65015 -0.034338 -0.88556 0.30312 -0.25217 -1.0502 0.45977 -0.15895 -1.2719 -0.033259 -0.14997
chinese -0.51742 0.40543 -0.35109 0.78151 0.33735 -0.79946 -0.094045 -0.19927 -0.25549 -0.043867 0.64488 0.051654 1.1569 0.49355 0.17844 -0.38467 -0.74389 0.6078 0.1081 -0.097775 0.8682 -0.22863 0.0017747 -0.50405 1.1444 -2.2063 -0.48134 -0.93773 -0.94641 -0.32139 3.6555 0.36522 0.021378 0.29677 -0.32398 0.045491 -0.63062 0.41415 -1.2073 0.34021 -0.7668 -0.28595 1.3208 -0.16975 1.7651 -0.46696 -0.71656 0.29103 0.49508 -1.1306
china -0.22427 0.27427 0.054742 1.4692 0.061821 -0.51894 0.45027 -0.32164 0.57876 -0.049142 0.52523 -0.18784 0.52539 -0.058431 0.19741 0.30754 -0.45412 0.38268 0.33441 0.42801 0.98406 -0.7637 -0.066755 -1.0027 1.1942 -2.3916 0.24326 -0.40705 -0.63413 -0.20832 3.8851 0.75046 0.14857 0.24485 -1.0143 -0.76356 -0.63824 0.73037 -1.2025 0.18932 -1.2139 -0.55377 1.3033 -0.82461 0.9965 0.15117 -0.65753 0.28569 0.45374 -0.85646
citizens -0.15656 -0.039787 0.21383 -0.63144 0.80788 -0.20018 -0.17708 0.55324 -0.049653 -0.45179 0.3509 -0.55825 1.3545 -0.2104 0.38152 -0.25768 0.13999 -0.16554 0.58007 -0.078396 0.27576 0.45216 -0.28395 0.67225 -0.077393 -1.8453 -0.040426 -1.1595 0.22986 0.02184 2.6272 0.82013 -0.61356 -1.1145 -0.48888 -0.22521 -0.19372 -0.93877 -0.43868 0.08345 -0.32671 -0.1111 1.6093 0.20597 -0.2374 -0.079705 -1.6399 0.22447 0.09803 -0.18369
promote -0.2844 0.5723 -1.0073 0.24092 -0.33211 0.018324 -0.2462 -1.039 0.92229 0.83428 0.53062 0.34444 0.14103 -0.089656 -0.58617 0.2646 0.57126 -0.00086673 1.1679 -0.030849 0.83665 0.18514 -0.25807 -0.06822 0.18642 -0.79911 0.14188 -0.91336 0.24131 -0.029611 3.3196 1.4112 -1.1983 -0.99316 -0.7935 -0.2276 -0.7363 0.24267 -0.92196 -0.038666 -0.49838 -0.84803 -0.06161 -0.67301 0.49999 -0.0049007 -0.30093 0.052175 0.098412 0.38123
cultural -0.24441 1.6071 -1.4355 0.74934 0.41822 -0.27906 0.097057 -1.2372 -0.24108 0.4053 0.30554 -0.33923 0.35823 0.029943 -0.2346 -0.21409 0.41704 -0.20468 0.4812 0.58677 0.44997 0.23488 -1.0123 -0.044808 0.26231 -0.74217 -1.4112 -0.71388 -0.0034445 0.22032 3.0605 0.40957 0.10841 -1.7822 -1.1471 0.4542 -1.1379 -0.01632 -0.55058 1.082 -0.32826 -0.2061 0.5009 0.10636 -0.2371 0.11697 -0.36823 0.3609 0.096004 -0.62588
understanding 0.60006 0.94688 -0.9643 0.17021 0.99266 0.53614 0.27152 -0.47258 0.15652 0.59132 0.66885 0.71222 -0.24509 -0.25265 -0.60551 0.30928 0.047728 -0.33427 0.93234 0.22092 -0.040599 1.0273 0.17574 -0.67867 1.3828 -0.80583 -0.25024 -0.53332 0.32719 -0.11436 3.1045 0.46483 -0.49321 -1.4276 -0.3654 -0.47337 -0.78874 0.14077 -0.1515 0.41477 -0.054441 -1.1136 0.16433 0.16587 0.14348 0.29557 0.47282 1.4056 -0.26325 -0.12711
between 0.7503 0.71623 -0.27033 0.20059 -0.17008 0.68568 -0.061672 -0.054638 -0.86404 -0.61395 -0.11047 -0.38827 -0.65705 -0.51993 -0.11222 0.35218 -0.062404 -0.1367 -0.74921 0.29496 0.646 -0.045973 0.67607 0.43915 -0.11932 -1.2565 0.61853 -0.057893 0.11771 0.45169 3.8217 0.19942 -0.3056 -0.3612 0.16007 -0.62274 -0.83083 -0.032579 -0.4838 0.60626 -0.22847 -0.073889 0.052593 0.039626 -0.72325 0.11038 0.35692 -0.26172 -0.67303 -0.87038
global 0.19864 0.33276 0.60186 0.42941 -0.066114 -0.35145 -0.06458 -1.343 1.3976 0.31494 0.38262 0.34206 -1.0415 0.76362 -0.00048788 0.61194 0.62786 -0.081468 -0.37687 -0.25974 0.8842 -0.31794 -0.56918 -0.51011 -0.040914 -1.1634 -0.20137 -0.45451 -0.016318 1.6068 3.3591 0.60102 0.49509 -0.83038 -1.1956 -0.81721 -1.1357 -0.57086 -0.030907 -0.63515 -0.74529 -0.52403 0.4333 -0.2881 0.64725 0.62501 0.23371 0.70031 0.037702 0.28565
korea -0.30067 0.32956 0.48158 0.75187 -0.59368 -0.52597 0.48813 0.5065 0.16268 -0.034976 0.27508 -0.22221 -0.19226 -0.11675 0.017398 0.87905 0.16556 0.29426 -0.092826 1.2171 0.59129 -0.17929 0.43377 -0.84162 0.55039 -2.4405 0.89472 0.042552 -0.33361 -0.44493 3.195 -0.055274 0.080788 0.69537 -0.15831 -0.77615 -0.017353 0.12928 -1.6166 -0.87956 -0.53023 -0.98761 1.2164 -1.1802 1.5171 -0.053297 -0.20255 1.2081 -0.70784 -0.45129
degrees -1.1782 1.6342 0.48445 -1.5398 -0.066559 -0.020921 0.86689 -0.45177 -0.052992 0.10907 0.14153 -0.76308 1.4697 0.35213 -0.70293 0.22015 -0.53992 0.42165 -1.3998 -0.12019 0.57889 0.99796 2.0056 -0.5502 0.0085603 -0.4002 0.092228 -0.013844 -0.17011 0.20681 2.9562 0.71003 -0.25879 -0.30803 0.61381 -0.39872 -0.17912 0.96919 1.6872 0.24905 -0.02744 0.33515 0.9951 0.78497 -1.7225 0.42697 1.3533 0.38137 -0.87803 -0.1528
korean -0.37091 0.45293 -0.02317 0.41713 -0.45777 -0.44084 -0.14999 0.29865 -0.3741 -0.34091 0.37764 0.0049877 0.35465 0.8761 -0.19744 0.024696 -0.38896 0.92814 0.059199 0.87424 0.52466 0.22725 0.20158 -0.3262 0.5885 -2.1577 0.10742 -0.18381 -0.60222 -0.18491 3.1231 -0.44597 0.12975 1.188 0.17618 -0.27286 -0.13756 -0.60492 -1.4584 -0.44235 -0.74184 -0.79881 1.1227 -0.78005 1.7246 -1.0448 -0.25364 0.95281 -0.47055 -0.75217
south -0.039674 0.47097 -0.31102 0.38088 -0.59254 -0.38231 -0.68876 0.15252 0.46303 -0.9099 -0.38665 -0.82695 0.035915 -0.93486 -0.82315 0.37535 0.93198 0.19098 -1.01 0.59531 -0.1818 0.34694 0.096477 0.48152 0.19392 -1.9725 0.77759 0.16259 -0.68996 -0.12239 3.5077 -0.23937 0.12591 0.22983 0.5462 -0.74276 -0.30525 -0.19996 -0.77648 -0.13621 -0.54883 0.068693 0.88314 -1.0529 0.18614 0.88575 -0.43661 -0.49549 -0.10562 -0.77821
full 0.16809 0.61767 -0.41634 -0.60138 0.4687 -0.036198 -0.21118 -0.16867 0.45501 -0.16094 -0.008203 0.0066006 -0.3118 0.10166 0.47197 -0.035625 -0.15962 -0.036652 -0.022693 -0.94248 0.32916 0.37139 -0.10399 -0.46078 -0.17817 -1.1402 -0.32809 0.26368 0.10645 0.11089 3.7261 0.50193 -0.89473 0.090049 0.19136 0.29865 0.55301 0.033112 -0.16181 -0.67191 0.11974 -0.21346 -0.25396 -0.095459 -0.74858 -0.01529 0.25935 0.28064 -0.47626 -0.081396
funding 0.69552 0.02062 0.7974 -0.76564 -0.78441 0.78613 -0.11742 -0.70118 1.148 0.013734 -0.53208 -0.087194 0.1995 -0.55032 -0.14958 0.13083 0.7011 0.2288 0.7555 0.41305 0.81134 -0.58933 -0.22709 -0.57598 -0.76332 -1.3975 0.73821 -0.5328 -0.56824 0.22559 3.097 0.68129 -0.58021 -0.8892 -0.14971 0.50047 0.093282 0.087443 0.10913 -0.82482 -0.43607 -0.31144 -0.082588 0.088362 -0.83318 -0.28281 -0.39806 1.2646 -0.17778 0.56247
